tree
version=v4
num_class=1
num_tree_per_iteration=1
label_index=0
max_feature_idx=54
objective=regression
feature_names=pm2p5 pm10 so2 no2 blh_era5 t2m_era5 d2m_era5 wind_speed u10_era5 v10_era5 no2_lag_1h pm2p5_lag_1h pm10_lag_1h t2m_era5_lag_1h wind_speed_lag_1h no2_lag_3h pm2p5_lag_3h pm10_lag_3h t2m_era5_lag_3h wind_speed_lag_3h no2_lag_6h pm2p5_lag_6h pm10_lag_6h t2m_era5_lag_6h wind_speed_lag_6h no2_lag_24h pm2p5_lag_24h pm10_lag_24h t2m_era5_lag_24h wind_speed_lag_24h blh_lag_1h inversion_strength ventilation_index stability_index hour_weekend_interaction hour month day_of_week is_weekend hour_sin hour_cos month_sin month_cos morning_peak evening_peak stubble_burning_flag diwali_flag low_wind_flag low_blh_flag pm25_pm10_ratio wind_u wind_v solar_elevation solar_elevation_abs no2_lifetime_proxy
feature_infos=[1.8058046e-08:9.4752539999999995e-07] [2.5738881000000001e-08:1.3422832000000001e-06] [4.3838283999999996e-09:3.1975279999999998e-07] [9.9999990000000002e-15:1.6823944000000001e-07] [11.340131888888889:4020.5539888888889] [276.8735733333333:316.21620666666666] [272.44300666666663:301.91428000000002] [0.0806225774829855:8.1080823873465917] [-8.0294369666666672:7.6797778777777772] [-5.0990363555555565:4.9149187333333337] [9.9999990000000002e-15:1.6823944000000001e-07] [1.8058046e-08:9.4752539999999995e-07] [2.5738881000000001e-08:1.3422832000000001e-06] [276.8735733333333:316.21620666666666] [0.0806225774829855:8.1080823873465917] [9.9999990000000002e-15:1.6823944000000001e-07] [1.8058046e-08:9.4752539999999995e-07] [2.5738881000000001e-08:1.3422832000000001e-06] [276.8735733333333:316.21620666666666] [0.0806225774829855:8.1080823873465917] [9.9999990000000002e-15:1.6823944000000001e-07] [1.8058046e-08:9.4752539999999995e-07] [2.5738881000000001e-08:1.3422832000000001e-06] [276.8735733333333:316.21620666666666] [0.0806225774829855:8.1080823873465917] [9.9999990000000002e-15:1.6823944000000001e-07] [1.8058046e-08:9.4752539999999995e-07] [2.5738881000000001e-08:1.3422832000000001e-06] [276.8735733333333:316.21620666666666] [0.0806225774829855:8.1080823873465917] [11.340131888888889:4020.5539888888889] [-0.00094222222224971119:30.752937777777788] [4.1562285821771683:21101.031482523445] [-2.03058121890082e-05:0.79788638735466433] [0:23] [0:23] [1:12] [0:6] [0:1] [-1:1] [-1:1] [-1:1] [-1:1] [0:1] [0:1] [0:1] [0:1] [0:1] [0:1] [0.51530937203245974:0.79812775577789963] [-8.0294369666666672:7.6797778777777772] [-5.0990363555555565:4.9149187333333337] [-84.392133504759187:84.392133504759187] [0.0114817633202779:84.392133504759187] [0.0078237585991593611:0.033878370439089096]
tree_sizes=664 691 698 684 698 685 687 685 683 702 696 690 700 697 695 697 699 690 697 690 697 691 697 700 696 700 699 702 700 699 704 691 702 698 700 700 698 702 702 699 696 696 699 694 694 705 700 707 706 707 700 692 695 706 697 699 688 699 701 700 692 710 693 711 703 705 693 706 698 691 701 692 701 703 708 700 700 702 706 697 703 696 702 702 702 701 695 706 694 698 695 699 699 697 695 705 704 709 706 707 696 701 701 705 704 703 702 702 704 708 703 693 699 696 695 705 710 699 709 707 702 704 703 706 702 709 699 704 698 706 698 694 701 700 702 704 704 705 698 702 712 703 706 712 704 689 691 696 691 697 705 702 698 701 704 706 704 697 703 705 703 704 709 712 706 702 712 691 706 706 710 693 691 688 705 703 703 695 691 694 697 699 699 708 694 708 713 712 715 707 705 693 702 699 708 692 697 694 705 698 693 710 708 709 696 695 708 702 695 712 697 685 685 704 688 701 704 706 706 708 711 714 699 704 707 702 709 704 710 706 700 704 713 698 698 707 708 708 708 711 696 697 703 705 694 701 702 704 699 701 703 706 705 702 699 698 703 703 701 702 709 701 700 708 707 699 710 709 711 713 717 687 686 699 713 701 700 698 704 697 708 709 706 694 706 710 713 706 712 696 699 701 701 710 707 707 703 705 696 698 695 692 697 692 705 695 698 694 711 695 715 711 711 711 709 717 700 714 707 712 709 705 708 709 709 702 700 705 709 702 712 714 714 712 706 710 710 709 708 705 683 686 699 692 692 710 710 709 711 705 704 711 708 706 711 697 701 699 710 710 706 710 709 706 709 714 712 700 712 716 710 709 695 699 701 618 618 525 523 526 707 703 613 708 692 627 688 707 704 714 697 696 705 717 614 620 622 621 700 614 705 707 695 702 702 609 703 704 526 705 706 707 712 706 621 710 711 711 705 708 712 708 716 716 710 710 710 715 699 706 618 621 525 706 615 707 705 709 717 707 703 701 708 704 709 718 717 628 715 716 619 617 619 619 621 710 614 712 609 613 707 700 711 614 712 689 708 709 708 705 522 529 713 521 521 709 706 707 705 707 706 706 615 616 616 708 705 707 710 710 697 710 700 701 704 709 710 709 711 696 526 699 530 614 704 613 622 616 616 621 620 717 613 714 616 525 618 523 701 522 712 711 714 524 711 616 616 616 617 619 712 713 712 698 712 705 704 706 714 714 716 713 707 712 716 696 702 695 711 712 612 700 617 617 618 705 706 702 706 707 697 704 697 702 708 709 610 612 717 611 705 699 705 697 699 706 714 710 709 699 615 617 620 621 617 615 613 614 611 614 609 711 610 701 609

Tree=0
num_leaves=6
num_cat=0
split_feature=1 28 23 4 40
split_gain=919805 133031 114594 66972.3 63364.9
threshold=2.8828884333333339e-07 298.73863833333343 289.76305444444455 207.55732833333334 0.60355339059327384
decision_type=2 2 2 2 2
left_child=2 4 -1 -4 -2
right_child=1 -3 3 -5 -6
leaf_value=27.038064942134582 27.13350305596634 26.999872821704507 26.958552878894167 26.881051635728657 27.068533677906039
leaf_weight=459.5 2181 962.5 1018 2440.5 1735
leaf_count=299 1236 827 957 2424 1057
internal_value=27.0108 27.0841 26.9196 26.9038 27.1048
internal_weight=8796.5 4878.5 3918 3458.5 3916
internal_count=6800 3120 3680 3381 2293
is_linear=0
shrinkage=1


Tree=1
num_leaves=6
num_cat=0
split_feature=5 54 33 6 40
split_gain=906678 161772 112971 61076.3 57985.6
threshold=299.34688000000006 0.029616780778548655 0.026911802393848879 292.7920400000001 1.0000000180025095e-35
decision_type=2 2 2 2 2
left_child=1 3 -2 -1 -3
right_child=2 4 -4 -5 -6
leaf_value=0.028576980446741371 -0.12404035291552522 0.1511451319712763 -0.024579915233882223 -0.096405907823080172 0.078606462955107065
leaf_weight=1586 2656.5 1049 1011 294 2200
leaf_count=1134 2623 583 934 286 1240
internal_value=-0.000663489 0.067999 -0.0966706 0.00889871 0.102151
internal_weight=8796.5 5129 3667.5 1880 3249
internal_count=6800 3243 3557 1420 1823
is_linear=0
shrinkage=0.008


Tree=2
num_leaves=6
num_cat=0
split_feature=1 41 23 33 40
split_gain=893547 140088 111236 96395 52424.7
threshold=2.8828884333333339e-07 -0.6830127018922193 289.76305444444455 0.030914671970813903 0.60355339059327384
decision_type=2 2 2 2 2
left_child=2 -2 -1 -4 -3
right_child=1 4 3 -5 -6
leaf_value=0.026167807995821978 -0.011119211474704259 0.12049282213432609 -0.12840635532247505 -0.025973614523480088 0.060899306473885736
leaf_weight=459.5 1032.5 2117 2704.5 754 1729
leaf_count=299 837 1243 2693 688 1040
internal_value=-0.000658126 0.0715781 -0.0905941 -0.106122 0.0937756
internal_weight=8796.5 4878.5 3918 3458.5 3846
internal_count=6800 3120 3680 3381 2283
is_linear=0
shrinkage=0.008


Tree=3
num_leaves=6
num_cat=0
split_feature=5 54 4 6 6
split_gain=880504 157609 75503.4 63637.3 59288.3
threshold=299.34688000000006 0.029616780778548655 194.51725287111117 294.87608944444452 292.7920400000001
decision_type=2 2 2 2 2
left_child=1 4 3 -2 -1
right_child=2 -3 -4 -5 -6
leaf_value=0.028064897602293911 0.049399517755250082 0.10072103251122295 -0.12133547499993066 -0.07909317735349683 -0.09507483936140082
leaf_weight=1586 335 3249 2419 913.5 294
leaf_count=1134 283 1823 2378 896 286
internal_value=-0.000652729 0.0670114 -0.095264 -0.044564 0.00867652
internal_weight=8796.5 5129 3667.5 1248.5 1880
internal_count=6800 3243 3557 1179 1420
is_linear=0
shrinkage=0.008


Tree=4
num_leaves=6
num_cat=0
split_feature=1 6 6 0 33
split_gain=867896 195636 115596 49436.1 48044.3
threshold=2.8828884333333339e-07 294.58258277777782 288.01393222222231 1.2562923166666669e-07 0.030914671970813903
decision_type=2 2 2 2 2
left_child=2 -2 3 -1 -4
right_child=1 -3 4 -5 -6
leaf_value=-0.082910766404787936 0.08861308200721621 -0.071188391167296958 -0.12742784479121017 0.040869311034172857 -0.045259819374185481
leaf_weight=335.5 4328 550.5 2492.5 526.5 563.5
leaf_count=320 2584 536 2479 346 535
internal_value=-0.000647808 0.070544 -0.0892836 -0.00740462 -0.112343
internal_weight=8796.5 4878.5 3918 862 3056
internal_count=6800 3120 3680 666 3014
is_linear=0
shrinkage=0.008


Tree=5
num_leaves=6
num_cat=0
split_feature=1 6 6 40 0
split_gain=856407 201725 113947 64228.2 64130.9
threshold=2.8828884333333339e-07 293.90514888888896 292.32287500000007 0.60355339059327384 1.2133608333333336e-07
decision_type=2 2 2 2 2
left_child=2 3 4 -2 -1
right_child=1 -3 -4 -5 -6
leaf_value=-0.095534711742516126 0.11669748059972838 -0.067310393560621892 -0.12256821018704828 0.054846199006375621 0.010617282294177195
leaf_weight=619 2423 597 2382 1949 877
leaf_count=603 1384 581 2364 1200 677
internal_value=0.000831307 0.0703503 -0.0882259 0.0891858 -0.0333952
internal_weight=8847 4969 3878 4372 1496
internal_count=6809 3165 3644 2584 1280
is_linear=0
shrinkage=0.008


Tree=6
num_leaves=6
num_cat=0
split_feature=1 6 6 40 1
split_gain=842779 198520 112130 63205.2 60979.1
threshold=2.8828884333333339e-07 293.90514888888896 292.32287500000007 0.60355339059327384 1.8865577500000005e-07
decision_type=2 2 2 2 2
left_child=2 3 4 -2 -1
right_child=1 -3 -4 -5 -6
leaf_value=-0.085613994840570903 0.1157650549508146 -0.066774602937772876 -0.12158889819574493 0.054408103457682565 0.016404667981021932
leaf_weight=725.5 2423 597 2382 1949 770.5
leaf_count=697 1384 581 2364 1200 583
internal_value=0.000824359 0.069788 -0.0875213 0.0884733 -0.0331293
internal_weight=8847 4969 3878 4372 1496
internal_count=6809 3165 3644 2584 1280
is_linear=0
shrinkage=0.008


Tree=7
num_leaves=6
num_cat=0
split_feature=1 6 6 0 54
split_gain=829366 195366 110343 62261.6 42748.2
threshold=2.8828884333333339e-07 293.90514888888896 292.32287500000007 1.2133608333333336e-07 0.029575249153768211
decision_type=2 2 2 2 2
left_child=2 4 3 -1 -2
right_child=1 -3 -4 -5 -6
leaf_value=-0.094092512506380732 0.045392007559590129 -0.066243076124489306 -0.12061741123480617 0.010500617446132343 0.10261539708091717
leaf_weight=619 1138 597 2382 877 3234
leaf_count=603 795 581 2364 677 1789
internal_value=0.000817508 0.0692302 -0.0868223 -0.0328652 0.0877665
internal_weight=8847 4969 3878 1496 4372
internal_count=6809 3165 3644 1280 2584
is_linear=0
shrinkage=0.008


Tree=8
num_leaves=6
num_cat=0
split_feature=1 6 42 4 40
split_gain=816167 192262 109163 63213.4 62319.1
threshold=2.8828884333333339e-07 293.90514888888896 0.6830127018922193 165.06187533333335 0.60355339059327384
decision_type=2 2 2 2 2
left_child=2 4 3 -1 -2
right_child=1 -3 -4 -5 -6
leaf_value=-0.038389210948185891 0.1141640550404824 -0.065715782370616996 0.033826851074872044 -0.11988005786518927 0.053241907733542169
leaf_weight=796.5 2423 597 430 2651.5 1949
leaf_count=742 1384 581 276 2626 1200
internal_value=0.000810618 0.0686767 -0.086129 -0.101111 0.0870652
internal_weight=8847 4969 3878 3448 4372
internal_count=6809 3165 3644 3368 2584
is_linear=0
shrinkage=0.008


Tree=9
num_leaves=6
num_cat=0
split_feature=5 54 33 40 6
split_gain=804293 159995 104796 58706.5 54825.9
threshold=299.43341388888899 0.029575249153768211 0.019885880058329565 1.0000000180025095e-35 292.62076084444448
decision_type=2 2 2 2 2
left_child=1 4 -2 -3 -1
right_child=2 3 -4 -5 -6
leaf_value=0.023786076752354952 -0.12277385338508598 0.14489472519872615 -0.031739875980761688 0.073429949520757098 -0.09207074037934565
leaf_weight=1557.5 2352.5 1092.5 1238 2295.5 311
leaf_count=1129 2336 608 1144 1289 303
internal_value=0.000804053 0.0638348 -0.0914437 0.0965883 0.00437508
internal_weight=8847 5256.5 3590.5 3388 1868.5
internal_count=6809 3329 3480 1897 1432
is_linear=0
shrinkage=0.008


Tree=10
num_leaves=6
num_cat=0
split_feature=0 6 6 40 0
split_gain=798297 239553 73391.2 68016.6 45050.5
threshold=1.8553791000000002e-07 294.58258277777782 291.63413722222225 0.37940952255126048 1.2133608333333336e-07
decision_type=2 2 2 2 2
left_child=2 3 4 -2 -1
right_child=1 -3 -4 -5 -6
leaf_value=-0.092732114519712583 0.11377897168320499 -0.07251956417654247 -0.1212773213362478 0.052634973239162774 0.00600860117127498
leaf_weight=587.5 2245.5 741.5 2272.5 2439 591
leaf_count=574 1298 724 2261 1529 463
internal_value=0.000360367 0.0608539 -0.0947179 0.0820025 -0.0433087
internal_weight=8877 5426 3451 4684.5 1178.5
internal_count=6849 3551 3298 2827 1037
is_linear=0
shrinkage=0.008


Tree=11
num_leaves=6
num_cat=0
split_feature=1 6 6 40 1
split_gain=782152 180838 109146 64780.9 62616
threshold=2.8828884333333339e-07 294.58258277777782 291.54230288888897 0.60355339059327384 1.7311947250000002e-07
decision_type=2 2 2 2 2
left_child=2 3 4 -2 -1
right_child=1 -3 -4 -5 -6
leaf_value=-0.090820823779146548 0.11157849674196794 -0.070442001871620988 -0.11564526766427009 0.049727691728815394 0.016859352505421209
leaf_weight=587 2450.5 541.5 2507 1959 832
leaf_count=573 1416 529 2488 1220 623
internal_value=0.000357157 0.0672119 -0.0839339 0.0841572 -0.0277684
internal_weight=8877 4951 3926 4409.5 1419
internal_count=6849 3165 3684 2636 1196
is_linear=0
shrinkage=0.008


Tree=12
num_leaves=6
num_cat=0
split_feature=5 33 12 40 21
split_gain=770096 151989 83651.3 76296.7 55414.7
threshold=297.80726833333341 0.057815716281506023 2.6671550833333341e-07 0.37940952255126048 4.6698050573333338e-07
decision_type=2 2 2 2 2
left_child=2 4 -1 -4 -2
right_child=1 -3 3 -5 -6
leaf_value=-0.021806615522321392 -0.1111312344221795 0.02310787742979618 0.12084859931500642 0.05188633078329289 0.017601526229543769
leaf_weight=560.5 3148 754 1831.5 2354.5 228.5
leaf_count=452 3128 649 996 1464 160
internal_value=0.000354015 -0.0794888 0.0698454 0.0821291 -0.102406
internal_weight=8877 4130.5 4746.5 4186 3376.5
internal_count=6849 3937 2912 2460 3288
is_linear=0
shrinkage=0.008


Tree=13
num_leaves=6
num_cat=0
split_feature=0 6 6 40 0
split_gain=763197 228356 70213.6 65331 43047.3
threshold=1.8553791000000002e-07 294.58258277777782 291.63413722222225 0.37940952255126048 1.2133608333333336e-07
decision_type=2 2 2 2 2
left_child=2 3 4 -2 -1
right_child=1 -3 -4 -5 -6
leaf_value=-0.090640882711507428 0.11129130214271822 -0.070718915212866926 -0.11859124620015532 0.051366921866472799 0.005879004395820878
leaf_weight=587.5 2245.5 741.5 2272.5 2439 591
leaf_count=574 1298 724 2261 1529 463
internal_value=0.000351418 0.0595001 -0.0926131 0.0801486 -0.0423287
internal_weight=8877 5426 3451 4684.5 1178.5
internal_count=6849 3551 3298 2827 1037
is_linear=0
shrinkage=0.008


Tree=14
num_leaves=6
num_cat=0
split_feature=0 6 6 40 0
split_gain=751053 224727 69093.6 64291 42365
threshold=1.8553791000000002e-07 294.58258277777782 291.63413722222225 0.37940952255126048 1.2133608333333336e-07
decision_type=2 2 2 2 2
left_child=2 3 4 -2 -1
right_child=1 -3 -4 -5 -6
leaf_value=-0.089919439250387243 0.1104021607036985 -0.070155443943751755 -0.11764376656272678 0.050956492731571927 0.0058322099189866668
leaf_weight=587.5 2245.5 741.5 2272.5 2439 591
leaf_count=574 1298 724 2261 1529 463
internal_value=0.000348288 0.0590246 -0.0918736 0.0795083 -0.0419916
internal_weight=8877 5426 3451 4684.5 1178.5
internal_count=6849 3551 3298 2827 1037
is_linear=0
shrinkage=0.008


Tree=15
num_leaves=6
num_cat=0
split_feature=5 1 33 40 6
split_gain=749948 128962 93502.3 69273.7 35071.8
threshold=299.43341388888899 2.6498811666666674e-07 0.024623811130886322 0.37940952255126048 289.61499500000008
decision_type=2 2 2 2 2
left_child=1 4 -2 -3 -1
right_child=2 3 -4 -5 -6
leaf_value=0.0093921459136079837 -0.11438787688385681 0.11336033825774836 -0.02483337153192703 0.049671905863729854 -0.099563898908454365
leaf_weight=486.5 2576.5 1963.5 1053.5 2484.5 305.5
leaf_count=364 2553 1089 972 1556 300
internal_value=-0.000103237 0.061107 -0.0884448 0.0778481 -0.0328277
internal_weight=8870 5240 3630 4448 792
internal_count=6834 3309 3525 2645 664
is_linear=0
shrinkage=0.008


Tree=16
num_leaves=6
num_cat=0
split_feature=1 6 6 10 40
split_gain=732200 163052 101008 51470.6 51218.1
threshold=2.8828884333333339e-07 294.58258277777782 291.63413722222225 2.0298142916666672e-08 0.60355339059327384
decision_type=2 2 2 2 2
left_child=2 4 3 -1 -2
right_child=1 -3 -4 -5 -6
leaf_value=-0.086361038554933336 0.10549827145714241 -0.065263665780817562 -0.11187757579903249 0.012420915175030923 0.050453756937850411
leaf_weight=559.5 2423.5 547.5 2523.5 842 1974
leaf_count=534 1391 533 2504 655 1217
internal_value=-0.000102572 0.0646344 -0.0816551 -0.0271003 0.080845
internal_weight=8870 4945 3925 1401.5 4397.5
internal_count=6834 3141 3693 1189 2608
is_linear=0
shrinkage=0.008


Tree=17
num_leaves=6
num_cat=0
split_feature=5 54 30 42 36
split_gain=727318 140475 65304.3 55779.4 53176.9
threshold=299.43341388888899 0.029616780778548655 221.65611611111109 0.6830127018922193 5.5000000000000009
decision_type=2 2 2 2 2
left_child=1 3 4 -1 -2
right_child=2 -3 -4 -5 -6
leaf_value=-0.030536680255183784 0.081207229109316909 0.091306120634408142 -0.11244758398342491 0.057861712172009 -0.062707759942717226
leaf_weight=1131 190 3347 2329.5 762 1110.5
leaf_count=987 156 1864 2301 458 1068
internal_value=-0.000101991 0.0601776 -0.0871005 0.00507153 -0.0415283
internal_weight=8870 5240 3630 1893 1300.5
internal_count=6834 3309 3525 1445 1224
is_linear=0
shrinkage=0.008


Tree=18
num_leaves=6
num_cat=0
split_feature=5 54 33 42 40
split_gain=715739 138237 90351.3 54893.6 51985.5
threshold=299.43341388888899 0.029616780778548655 0.024623811130886322 0.6830127018922193 1.0000000180025095e-35
decision_type=2 2 2 2 2
left_child=1 3 -2 -1 -3
right_child=2 4 -4 -5 -6
leaf_value=-0.03029303295060342 -0.11190632068884276 0.13725722253656727 -0.023875528826773646 0.057400632814123158 0.069092574221514602
leaf_weight=1131 2576.5 1049.5 1053.5 762 2297.5
leaf_count=987 2553 582 972 458 1282
internal_value=-0.00010109 0.0596967 -0.0864043 0.00503122 0.0905763
internal_weight=8870 5240 3630 1893 3347
internal_count=6834 3309 3525 1445 1864
is_linear=0
shrinkage=0.008


Tree=19
num_leaves=6
num_cat=0
split_feature=5 54 33 42 20
split_gain=704353 136040 88912.1 53327.4 41408.3
threshold=299.43341388888899 0.029575249153768211 0.024623811130886322 0.6830127018922193 3.427316666666667e-08
decision_type=2 2 2 2 2
left_child=1 3 -2 -1 -3
right_child=2 4 -4 -5 -6
leaf_value=-0.03067423704106266 -0.11101211209100424 0.14710833320053676 -0.02368506728113403 0.056193030785141811 0.075719755454061385
leaf_weight=1114 2576.5 648 1053.5 757 2721
leaf_count=974 2553 404 972 455 1476
internal_value=-9.99997e-05 0.0592202 -0.085714 0.00449497 0.0895754
internal_weight=8870 5240 3630 1871 3369
internal_count=6834 3309 3525 1429 1880
is_linear=0
shrinkage=0.008


Tree=20
num_leaves=6
num_cat=0
split_feature=1 6 6 40 54
split_gain=688810 127361 125286 58902.7 52967.2
threshold=3.105201733333334e-07 293.90514888888896 287.93346388888892 0.60355339059327384 0.021849905777213078
decision_type=2 2 2 2 2
left_child=2 3 4 -2 -1
right_child=1 -3 -4 -5 -6
leaf_value=-0.065859184831523435 0.10942219708024241 -0.05627203981129747 -0.097188300923627569 0.048685559831380558 0.050529246623289517
leaf_weight=415 2278.5 472 3252.5 1869 620.5
leaf_count=395 1287 458 3198 1157 384
internal_value=0.000181384 0.0679409 -0.0728084 0.0821121 0.00380919
internal_weight=8907.5 4619.5 4288 4147.5 1035.5
internal_count=6879 2902 3977 2444 779
is_linear=0
shrinkage=0.008


Tree=21
num_leaves=6
num_cat=0
split_feature=1 6 6 40 0
split_gain=677946 160971 93224.1 59131 52585.9
threshold=2.8828884333333339e-07 294.58258277777782 291.63413722222225 0.60355339059327384 1.2562923166666669e-07
decision_type=2 2 2 2 2
left_child=2 3 4 -2 -1
right_child=1 -3 -4 -5 -6
leaf_value=-0.081824736728432462 0.10447726832859952 -0.06561656426829951 -0.10773731783288809 0.045400833232214409 0.015643778569086747
leaf_weight=624 2464 557 2499 1951.5 812
leaf_count=606 1412 543 2480 1226 612
internal_value=0.000179886 0.0622523 -0.078241 0.0784206 -0.0267786
internal_weight=8907.5 4972.5 3935 4415.5 1436
internal_count=6879 3181 3698 2638 1218
is_linear=0
shrinkage=0.008


Tree=22
num_leaves=6
num_cat=0
split_feature=1 6 6 54 30
split_gain=667554 123410 121674 51693.4 38898.1
threshold=3.105201733333334e-07 293.90514888888896 287.93346388888892 0.021849905777213078 198.63757500000006
decision_type=2 2 2 2 2
left_child=2 -2 3 -1 -4
right_child=1 -3 4 -5 -6
leaf_value=-0.064997155037080284 0.080833723170295274 -0.055386878047250218 -0.052808313092489269 0.049983231052792156 -0.11368291243495821
leaf_weight=415 4147.5 472 964.5 620.5 2288
leaf_count=395 2444 458 926 384 2272
internal_value=0.000178187 0.0668841 -0.0716765 0.00382834 -0.0957025
internal_weight=8907.5 4619.5 4288 1035.5 3252.5
internal_count=6879 2902 3977 779 3198
is_linear=0
shrinkage=0.008


Tree=23
num_leaves=6
num_cat=0
split_feature=5 54 33 40 42
split_gain=657662 133266 87023.6 52831.7 48328.9
threshold=299.34688000000006 0.029575249153768211 0.057815716281506023 0.37940952255126048 0.6830127018922193
decision_type=2 2 2 2 2
left_child=1 4 -2 -3 -1
right_child=2 3 -4 -5 -6
leaf_value=-0.030466267071985628 -0.098836381897867559 0.12494554524573688 0.0066931657361267802 0.06059407108523622 0.052304590313048925
leaf_weight=1098.5 3082.5 1420 596 1948.5 762
leaf_count=959 3032 776 526 1128 458
internal_value=0.000176287 0.0578213 -0.0817413 0.0878146 0.00345287
internal_weight=8907.5 5229 3678.5 3368.5 1860.5
internal_count=6879 3321 3558 1904 1417
is_linear=0
shrinkage=0.008


Tree=24
num_leaves=6
num_cat=0
split_feature=1 6 6 0 40
split_gain=648719 119768 118567 60523.1 56622.4
threshold=3.105201733333334e-07 293.90514888888896 291.11882611111122 1.2562923166666669e-07 0.60355339059327384
decision_type=2 2 2 2 2
left_child=2 4 3 -1 -2
right_child=1 -3 -4 -5 -6
leaf_value=-0.078758555438839514 0.10645101107436525 -0.054519484513747066 -0.10239604190835659 0.023919904892104452 0.04690467089012218
leaf_weight=587.5 2278.5 472 2731 969.5 1869
leaf_count=570 1287 458 2708 699 1157
internal_value=0.000175206 0.0659333 -0.0706585 -0.0148877 0.0796756
internal_weight=8907.5 4619.5 4288 1557 4147.5
internal_count=6879 2902 3977 1269 2444
is_linear=0
shrinkage=0.008


Tree=25
num_leaves=6
num_cat=0
split_feature=0 6 42 33 40
split_gain=639767 180713 69603.8 54588.9 54498.8
threshold=1.8879108333333335e-07 293.90514888888896 0.6830127018922193 0.030914671970813903 0.60355339059327384
decision_type=2 2 2 2 2
left_child=2 4 3 -1 -2
right_child=1 -3 -4 -5 -6
leaf_value=-0.11019630908787649 0.09856240055682372 -0.05925899225913013 0.023759447339564393 -0.024054896383398569 0.042655171267796096
leaf_weight=2619.5 2605.5 749.5 351 577 1966.5
leaf_count=2604 1505 731 228 539 1232
internal_value=0.000221616 0.0556892 -0.0829547 -0.0946903 0.0745638
internal_weight=8869 5321.5 3547.5 3196.5 4572
internal_count=6839 3468 3371 3143 2737
is_linear=0
shrinkage=0.008


Tree=26
num_leaves=6
num_cat=0
split_feature=0 6 6 40 0
split_gain=629582 177840 67205.6 53630.7 36435.8
threshold=1.8879108333333335e-07 293.90514888888896 291.80511222222225 0.60355339059327384 1.2562923166666669e-07
decision_type=2 2 2 2 2
left_child=2 3 4 -2 -1
right_child=1 -3 -4 -5 -6
leaf_value=-0.077723912668078668 0.097774807774611588 -0.058786810084712073 -0.10810614688047449 0.04231444942730276 0.0081911885461501133
leaf_weight=635 2605.5 749.5 2288.5 1966.5 624
leaf_count=617 1505 731 2277 1232 477
internal_value=0.000219748 0.055244 -0.0822919 0.0739681 -0.0352076
internal_weight=8869 5321.5 3547.5 4572 1259
internal_count=6839 3468 3371 2737 1094
is_linear=0
shrinkage=0.008


Tree=27
num_leaves=6
num_cat=0
split_feature=0 54 42 42 33
split_gain=619563 141804 67774.6 64082.6 53352.8
threshold=1.8879108333333335e-07 0.030075141690246703 0.6830127018922193 0.25000000000000017 0.030914671970813903
decision_type=2 2 2 2 2
left_child=2 3 4 -2 -1
right_child=1 -3 -4 -5 -6
leaf_value=-0.10854442077657515 -0.042917370381847904 0.089519898000643569 0.02366590449836968 0.043841952663068333 -0.023386296044495599
leaf_weight=2619.5 969.5 3116 351 1236 577
leaf_count=2604 924 1732 228 812 539
internal_value=0.000217711 0.0548024 -0.0816347 0.00568849 -0.0932151
internal_weight=8869 5321.5 3547.5 2205.5 3196.5
internal_count=6839 3468 3371 1736 3143
is_linear=0
shrinkage=0.008


Tree=28
num_leaves=6
num_cat=0
split_feature=0 6 42 40 33
split_gain=609700 173031 66698 52850.3 52502.1
threshold=1.8879108333333335e-07 293.90514888888896 0.6830127018922193 0.60355339059327384 0.030914671970813903
decision_type=2 2 2 2 2
left_child=2 3 4 -2 -1
right_child=1 -3 -4 -5 -6
leaf_value=-0.10767705881413787 0.096465990161405751 -0.058113665764296177 0.023478182286697593 0.041412745231301479 -0.023200173462105209
leaf_weight=2619.5 2605.5 749.5 351 1966.5 577
leaf_count=2604 1505 731 228 1232 539
internal_value=0.000215903 0.0543644 -0.0809824 0.0728336 -0.0924704
internal_weight=8869 5321.5 3547.5 4572 3196.5
internal_count=6839 3468 3371 2737 3143
is_linear=0
shrinkage=0.008


Tree=29
num_leaves=6
num_cat=0
split_feature=0 6 42 40 4
split_gain=599993 170281 65638.5 52008.5 33230.4
threshold=1.8879108333333335e-07 293.90514888888896 0.6830127018922193 0.60355339059327384 165.06187533333335
decision_type=2 2 2 2 2
left_child=2 3 4 -2 -1
right_child=1 -3 -4 -5 -6
leaf_value=-0.038689412298414015 0.095695149811727012 -0.057650609881992748 0.023291948621219159 0.041081946904502203 -0.10435166616625616
leaf_weight=617 2605.5 749.5 351 1966.5 2579.5
leaf_count=584 1505 731 228 1232 2559
internal_value=0.000214083 0.0539299 -0.0803352 0.0722517 -0.0917317
internal_weight=8869 5321.5 3547.5 4572 3196.5
internal_count=6839 3468 3371 2737 3143
is_linear=0
shrinkage=0.008


Tree=30
num_leaves=6
num_cat=0
split_feature=1 42 41 33 40
split_gain=590685 100404 83489.5 73642.4 41275.1
threshold=3.105201733333334e-07 0.6830127018922193 -0.6830127018922193 0.016348730476748088 0.60355339059327384
decision_type=2 2 2 2 2
left_child=1 3 -2 -1 -4
right_child=2 -3 4 -5 -6
leaf_value=-0.10977882809477293 -0.0046454953211382249 0.033036368467328367 0.10456797841669772 -0.035840369741776061 0.050767064375165032
leaf_weight=2319.5 925.5 554 2027.5 1379 1680.5
leaf_count=2313 731 349 1177 1278 1006
internal_value=0.000828758 -0.0672286 0.0632974 -0.0822674 0.080251
internal_weight=8886 4252.5 4633.5 3698.5 3708
internal_count=6854 3940 2914 3591 2183
is_linear=0
shrinkage=0.008


Tree=31
num_leaves=6
num_cat=0
split_feature=1 6 6 0 4
split_gain=581285 106600 102469 41595 38971.8
threshold=3.105201733333334e-07 287.93346388888892 295.88252611111119 1.2562923166666669e-07 85.723665388888904
decision_type=2 2 2 2 2
left_child=1 3 -2 -1 -3
right_child=2 4 -4 -5 -6
leaf_value=-0.067918246389846115 0.074177214082818049 -0.013960399094352892 -0.061176812088961502 0.040519987698283008 -0.099409788500656265
leaf_weight=335 4245 390 388.5 682.5 2845
leaf_count=319 2532 363 382 442 2816
internal_value=0.000822213 -0.0666914 0.0627918 0.00470366 -0.089137
internal_weight=8886 4252.5 4633.5 1017.5 3235
internal_count=6854 3940 2914 761 3179
is_linear=0
shrinkage=0.008


Tree=32
num_leaves=6
num_cat=0
split_feature=1 42 54 33 40
split_gain=572029 97517.5 82645.6 71810.4 47561.2
threshold=3.105201733333334e-07 0.6830127018922193 0.030043220488085162 0.016348730476748088 0.1294095225512602
decision_type=2 2 2 2 2
left_child=1 3 -2 -1 -4
right_child=2 -3 4 -5 -6
leaf_value=-0.10814676424086545 0.01602048853469636 0.032653950330759504 0.13108994680331801 -0.035134524454558121 0.063928208626712529
leaf_weight=2319.5 1614 554 1031 1379 1988.5
leaf_count=2313 1232 349 571 1278 1111
internal_value=0.000815237 -0.0661587 0.0622895 -0.0809798 0.0869744
internal_weight=8886 4252.5 4633.5 3698.5 3019.5
internal_count=6854 3940 2914 3591 1682
is_linear=0
shrinkage=0.008


Tree=33
num_leaves=6
num_cat=0
split_feature=1 6 6 33 0
split_gain=562929 103690 100269 41715.3 40583.6
threshold=3.105201733333334e-07 287.93346388888892 295.88252611111119 0.01831357212969684 1.2562923166666669e-07
decision_type=2 2 2 2 2
left_child=1 4 -2 -3 -1
right_child=2 3 -4 -5 -6
leaf_value=-0.066950287337839254 0.073055047294556419 -0.10677352705803525 -0.06083713163400252 -0.044107500597823271 0.040161381109429482
leaf_weight=335 4245 2250.5 388.5 984.5 682.5
leaf_count=319 2532 2240 382 939 442
internal_value=0.000809004 -0.0656301 0.0617923 -0.0877672 0.00478337
internal_weight=8886 4252.5 4633.5 3235 1017.5
internal_count=6854 3940 2914 3179 761
is_linear=0
shrinkage=0.008


Tree=34
num_leaves=6
num_cat=0
split_feature=1 6 6 40 33
split_gain=553967 102039 98678 52595.2 41148.8
threshold=3.105201733333334e-07 287.93346388888892 295.88252611111119 0.60355339059327384 0.030914671970813903
decision_type=2 2 2 2 2
left_child=1 -1 3 -2 -3
right_child=2 4 -4 -5 -6
leaf_value=0.0047443168421021755 0.097896943502514738 -0.10152775646149013 -0.060354163593868339 0.041168474213584272 -0.030570798412628299
leaf_weight=1017.5 2338.5 2573.5 388.5 1906.5 661.5
leaf_count=761 1338 2553 382 1194 626
internal_value=0.000802031 -0.0651061 0.061298 0.072471 -0.0870663
internal_weight=8886 4252.5 4633.5 4245 3235
internal_count=6854 3940 2914 2532 3179
is_linear=0
shrinkage=0.008


Tree=35
num_leaves=6
num_cat=0
split_feature=1 6 6 40 0
split_gain=556633 124419 78320.8 54445.9 41355.6
threshold=2.8828884333333339e-07 294.58258277777782 291.80511222222225 0.60355339059327384 1.0791660666666672e-07
decision_type=2 2 2 2 2
left_child=2 3 4 -2 -1
right_child=1 -3 -4 -5 -6
leaf_value=-0.084490088775327321 0.09572780017598774 -0.059767566479018756 -0.0975493078170665 0.039197229205162241 0.007051669082442401
leaf_weight=468.5 2451.5 522 2509.5 1977 954.5
leaf_count=460 1419 509 2492 1236 751
internal_value=0.000337462 0.0567672 -0.0706842 0.0705392 -0.0231873
internal_weight=8883 4950.5 3932.5 4428.5 1423
internal_count=6867 3164 3703 2655 1211
is_linear=0
shrinkage=0.008


Tree=36
num_leaves=6
num_cat=0
split_feature=1 6 6 0 6
split_gain=547775 122443 77071.8 40700.7 31856
threshold=2.8828884333333339e-07 294.58258277777782 291.80511222222225 1.0791660666666672e-07 286.84446231111116
decision_type=2 2 2 2 2
left_child=2 4 3 -1 -2
right_child=1 -3 -4 -5 -6
leaf_value=-0.083818469186602823 0.090481594109474206 -0.059292158212008929 -0.096769844665622232 0.006995432652147881 0.047368050013007944
leaf_weight=468.5 2317 522 2509.5 954.5 2111.5
leaf_count=460 1260 509 2492 751 1395
internal_value=0.000334475 0.0563134 -0.0701198 -0.023003 0.0699756
internal_weight=8883 4950.5 3932.5 1423 4428.5
internal_count=6867 3164 3703 1211 2655
is_linear=0
shrinkage=0.008


Tree=37
num_leaves=6
num_cat=0
split_feature=1 6 6 40 0
split_gain=539058 120499 75842.7 53640 40056.2
threshold=2.8828884333333339e-07 294.58258277777782 291.80511222222225 0.60355339059327384 1.0791660666666672e-07
decision_type=2 2 2 2 2
left_child=2 3 4 -2 -1
right_child=1 -3 -4 -5 -6
leaf_value=-0.083152188054830128 0.094417563913967162 -0.058820531857694897 -0.095996609544516803 0.038309000856395943 0.0069396447279434607
leaf_weight=468.5 2451.5 522 2509.5 1977 954.5
leaf_count=460 1419 509 2492 1236 751
internal_value=0.000331524 0.0558633 -0.0695599 0.0694166 -0.0228202
internal_weight=8883 4950.5 3932.5 4428.5 1423
internal_count=6867 3164 3703 2655 1211
is_linear=0
shrinkage=0.008


Tree=38
num_leaves=6
num_cat=0
split_feature=1 54 42 33 40
split_gain=530479 96148.3 72126.6 60368.1 52100
threshold=2.8828884333333339e-07 0.030043220488085162 0.6830127018922193 0.016348730476748088 0.1294095225512602
decision_type=2 2 2 2 2
left_child=2 -2 3 -1 -3
right_child=1 4 -4 -5 -6
leaf_value=-0.10517490799791146 0.010263726475042232 0.13009733554682557 0.029341239698178874 -0.035402176015711044 0.059774118514824733
leaf_weight=2285.5 1877 1008 424 1223 2065.5
leaf_count=2283 1432 574 270 1150 1158
internal_value=0.000328589 0.0554168 -0.0690045 -0.0809101 0.0829485
internal_weight=8883 4950.5 3932.5 3508.5 3073.5
internal_count=6867 3164 3703 3433 1732
is_linear=0
shrinkage=0.008


Tree=39
num_leaves=6
num_cat=0
split_feature=1 6 6 40 0
split_gain=522040 117908 73846.9 52459.2 39045.5
threshold=2.8828884333333339e-07 294.58258277777782 291.80511222222225 0.60355339059327384 1.1017829066666669e-07
decision_type=2 2 2 2 2
left_child=2 3 4 -2 -1
right_child=1 -3 -4 -5 -6
leaf_value=-0.080557001709447476 0.093105468905768596 -0.05846903499444326 -0.094539610865709209 0.037618644833408599 0.0077244989161526787
leaf_weight=483 2451.5 522 2509.5 1977 940
leaf_count=474 1419 509 2492 1236 737
internal_value=0.000326218 0.0549745 -0.0684531 0.0683814 -0.0223327
internal_weight=8883 4950.5 3932.5 4428.5 1423
internal_count=6867 3164 3703 2655 1211
is_linear=0
shrinkage=0.008


Tree=40
num_leaves=6
num_cat=0
split_feature=1 6 42 33 40
split_gain=511688 113889 76146.8 54671.5 46557.2
threshold=2.8828884333333339e-07 294.58258277777782 0.6830127018922193 0.030914671970813903 0.60355339059327384
decision_type=2 2 2 2 2
left_child=2 4 3 -1 -2
right_child=1 -3 -4 -5 -6
leaf_value=-0.097617451474541858 0.09035540311401484 -0.055224936975883779 0.028805651864553864 -0.019121701930025898 0.03780918347238274
leaf_weight=2763.5 2437.5 546 451 717.5 1950.5
leaf_count=2746 1395 531 288 673 1219
internal_value=-0.000753635 0.0534847 -0.0688076 -0.0814741 0.0670445
internal_weight=8866 4934 3932 3481 4388
internal_count=6852 3145 3707 3419 2614
is_linear=0
shrinkage=0.008


Tree=41
num_leaves=6
num_cat=0
split_feature=1 6 42 40 30
split_gain=503541 112080 74936.9 45815.7 42514.2
threshold=2.8828884333333339e-07 294.58258277777782 0.6830127018922193 0.60355339059327384 198.63757500000006
decision_type=2 2 2 2 2
left_child=2 3 4 -2 -1
right_child=1 -3 -4 -5 -6
leaf_value=-0.034725060483516687 0.089633447631940172 -0.054785551802301019 0.028576729599074646 0.037507173859454464 -0.097844702970782335
leaf_weight=941.5 2437.5 546 451 1950.5 2539.5
leaf_count=894 1395 531 288 1219 2525
internal_value=-0.000747628 0.0530572 -0.0682577 0.0665089 -0.0808232
internal_weight=8866 4934 3932 4388 3481
internal_count=6852 3145 3707 2614 3419
is_linear=0
shrinkage=0.008


Tree=42
num_leaves=6
num_cat=0
split_feature=1 54 42 40 42
split_gain=495525 91902.5 73746.4 49141.5 44561.4
threshold=2.8828884333333339e-07 0.030043220488085162 0.6830127018922193 1.0000000180025095e-35 0.25000000000000017
decision_type=2 2 2 2 2
left_child=2 4 -1 -3 -2
right_child=1 3 -4 -5 -6
leaf_value=-0.08017755935807315 -0.038265540729454373 0.12630596928824397 0.028349625823387493 0.057443817028249987 0.040822102887517739
leaf_weight=3481 765.5 983 451 2067.5 1118
leaf_count=3419 727 551 288 1154 713
internal_value=-0.000741715 0.0526331 -0.0677123 0.079743 0.00865863
internal_weight=8866 4934 3932 3050.5 1883.5
internal_count=6852 3145 3707 1705 1440
is_linear=0
shrinkage=0.008


Tree=43
num_leaves=6
num_cat=0
split_feature=1 6 42 33 40
split_gain=487638 109012 72574.3 53458 44719.8
threshold=2.8828884333333339e-07 294.58258277777782 0.6830127018922193 0.030914671970813903 0.60355339059327384
decision_type=2 2 2 2 2
left_child=2 4 3 -1 -2
right_child=1 -3 -4 -5 -6
leaf_value=-0.095499506453622776 0.08832550580240997 -0.054142997377720034 0.028124327745862997 -0.017885419325498472 0.036827006888962496
leaf_weight=2763.5 2437.5 546 451 717.5 1950.5
leaf_count=2746 1395 531 288 673 1219
internal_value=-0.000735363 0.052213 -0.0671709 -0.0795367 0.0654794
internal_weight=8866 4934 3932 3481 4388
internal_count=6852 3145 3707 3419 2614
is_linear=0
shrinkage=0.008


Tree=44
num_leaves=6
num_cat=0
split_feature=1 6 6 40 54
split_gain=479874 107281 70485.3 44007.6 33247.7
threshold=2.8828884333333339e-07 294.58258277777782 287.93346388888892 0.60355339059327384 0.02060972835193384
decision_type=2 2 2 2 2
left_child=2 3 4 -2 -1
right_child=1 -3 -4 -5 -6
leaf_value=-0.064144845079963889 0.087619770362738145 -0.053712220273979809 -0.084899495398131963 0.036532843018752065 0.035670011106191467
leaf_weight=350.5 2437.5 546 3045 1950.5 536.5
leaf_count=335 1395 531 3013 1219 359
internal_value=-0.000729501 0.0517956 -0.066634 0.0649563 -0.00383284
internal_weight=8866 4934 3932 4388 887
internal_count=6852 3145 3707 2614 694
is_linear=0
shrinkage=0.008


Tree=45
num_leaves=6
num_cat=0
split_feature=6 1 40 4 54
split_gain=468979 169033 47868.8 33482.7 19447.3
threshold=293.31924497777783 2.3539371500000005e-07 0.37940952255126048 252.1972705555556 0.024365902434980633
decision_type=2 2 2 2 2
left_child=1 4 -3 -2 -1
right_child=3 2 -4 -5 -6
leaf_value=-0.073197669627108608 -0.052665507283800012 0.087196794727510782 0.036502022480402331 -0.10723147669964998 -0.0024408776350852263
leaf_weight=715 1314 2340.5 2445.5 1623.5 381.5
leaf_count=699 1278 1346 1547 1616 310
internal_value=-0.000404174 0.0408133 0.0613366 -0.0829085 -0.0486716
internal_weight=8820 5882.5 4786 2937.5 1096.5
internal_count=6796 3902 2893 2894 1009
is_linear=0
shrinkage=0.008


Tree=46
num_leaves=6
num_cat=0
split_feature=28 33 54 33 40
split_gain=451594 97063.7 73852.8 43447.2 39357.8
threshold=297.89857444444448 0.018095458683593236 0.029575249153768211 0.13967467049666801 1.0000000180025095e-35
decision_type=2 2 2 2 2
left_child=2 -2 -1 -3 -4
right_child=1 3 4 -5 -6
leaf_value=0.0095964965771207465 -0.09269687333641291 -0.031472314623437185 0.11725381910550642 0.08003024247653516 0.05622627515787517
leaf_weight=1600 2482.5 1416 1021 262.5 2038
leaf_count=1173 2438 1292 568 201 1124
internal_value=-0.000401263 -0.0609532 0.0536784 -0.0139109 0.0766968
internal_weight=8820 4161 4659 1678.5 3059
internal_count=6796 3931 2865 1493 1692
is_linear=0
shrinkage=0.008


Tree=47
num_leaves=6
num_cat=0
split_feature=6 1 54 33 54
split_gain=455515 164296 47011.9 35018.2 19002.1
threshold=293.31924497777783 2.3539371500000005e-07 0.029575249153768211 0.018095458683593236 0.024365902434980633
decision_type=2 2 2 2 2
left_child=1 4 -3 -2 -1
right_child=3 2 -4 -5 -6
leaf_value=-0.072241782233866153 -0.10081816817549007 0.023454419329452324 0.077478428619718459 -0.041549434647761098 -0.0023000026959901672
leaf_weight=715 1987 1510.5 3275.5 950.5 381.5
leaf_count=699 1977 1066 1827 917 310
internal_value=-0.00039762 0.0402238 0.0604576 -0.0817091 -0.0479981
internal_weight=8820 5882.5 4786 2937.5 1096.5
internal_count=6796 3902 2893 2894 1009
is_linear=0
shrinkage=0.008


Tree=48
num_leaves=6
num_cat=0
split_feature=6 0 40 33 0
split_gain=448266 160000 46614.4 34461.5 19342.9
threshold=293.31924497777783 1.6692232000000004e-07 0.37940952255126048 0.01831357212969684 1.1017829066666669e-07
decision_type=2 2 2 2 2
left_child=1 4 -3 -2 -1
right_child=3 2 -4 -5 -6
leaf_value=-0.080563661509191795 -0.099836222119487963 0.085368764157239554 0.03535002486348876 -0.040844268282676593 -0.013283469799821118
leaf_weight=550 1999 2341.5 2445.5 938.5 545.5
leaf_count=545 1989 1349 1547 905 461
internal_value=-0.000394773 0.0399021 0.0598584 -0.0810566 -0.0472077
internal_weight=8820 5882.5 4787 2937.5 1095.5
internal_count=6796 3902 2896 2894 1006
is_linear=0
shrinkage=0.008


Tree=49
num_leaves=6
num_cat=0
split_feature=6 1 54 33 54
split_gain=441131 159141 46402.1 33915.7 18589.5
threshold=293.31924497777783 2.3539371500000005e-07 0.029575249153768211 0.018095458683593236 0.024365902434980633
decision_type=2 2 2 2 2
left_child=1 4 -3 -2 -1
right_child=3 2 -4 -5 -6
leaf_value=-0.07122281794580515 -0.099215353329876563 0.022736098456991205 0.076406668124555974 -0.040886419546837791 -0.0020460747585805089
leaf_weight=715 1987 1510.5 3275.5 950.5 381.5
leaf_count=699 1977 1066 1827 917 310
internal_value=-0.000391942 0.039583 0.0594968 -0.0804094 -0.0472439
internal_weight=8820 5882.5 4786 2937.5 1096.5
internal_count=6796 3902 2893 2894 1009
is_linear=0
shrinkage=0.008


Tree=50
num_leaves=6
num_cat=0
split_feature=6 1 6 4 0
split_gain=441758 159346 37163.7 30412.6 18084.3
threshold=293.31924497777783 2.3187333500000003e-07 286.77624944444455 252.1972705555556 1.1663313666666668e-07
decision_type=2 2 2 2 2
left_child=1 4 -3 -2 -1
right_child=3 2 -4 -5 -6
leaf_value=-0.073177329837477434 -0.05114955758434258 0.081802382984713207 0.036863507323890023 -0.10317019654798834 -0.0086263126004934316
leaf_weight=631.5 1326.5 2524.5 2226 1603.5 497
leaf_count=621 1294 1384 1487 1599 423
internal_value=0.000496352 0.0404896 0.0607856 -0.0797021 -0.0448645
internal_weight=8809 5879 4750.5 2930 1128.5
internal_count=6808 3915 2871 2893 1044
is_linear=0
shrinkage=0.008


Tree=51
num_leaves=6
num_cat=0
split_feature=6 54 1 20 4
split_gain=434729 165837 50163 45668.8 29928.3
threshold=293.31924497777783 0.029353416780295405 1.8865577500000005e-07 3.3966352406666673e-08 252.1972705555556
decision_type=2 2 2 2 2
left_child=1 2 -1 -3 -2
right_child=4 3 -4 -5 -6
leaf_value=-0.064360388117668824 -0.050741284510075216 0.13401387374031906 0.014005333468109907 0.061073098202460013 -0.10234637544105404
leaf_weight=759 1326.5 688 1662 2770 1603.5
leaf_count=733 1294 441 1228 1513 1599
internal_value=0.000492007 0.0401659 -0.0106039 0.0756947 -0.0790658
internal_weight=8809 5879 2421 3458 2930
internal_count=6808 3915 1961 1954 2893
is_linear=0
shrinkage=0.008


Tree=52
num_leaves=6
num_cat=0
split_feature=6 54 0 20 4
split_gain=427815 163202 50822 44945.8 29451.7
threshold=293.31924497777783 0.029353416780295405 1.2133608333333336e-07 3.3966352406666673e-08 252.1972705555556
decision_type=2 2 2 2 2
left_child=1 2 -1 -3 -2
right_child=4 3 -4 -5 -6
leaf_value=-0.070072978256867841 -0.050336270116423699 0.13294641655416115 0.011986609734072456 0.060585041400323746 -0.10152913316238384
leaf_weight=662.5 1326.5 688 1758.5 2770 1603.5
leaf_count=649 1294 441 1312 1513 1599
internal_value=0.00048803 0.0398451 -0.0105195 0.0750905 -0.0784346
internal_weight=8809 5879 2421 3458 2930
internal_count=6808 3915 1961 1954 2893
is_linear=0
shrinkage=0.008


Tree=53
num_leaves=6
num_cat=0
split_feature=6 1 40 3 10
split_gain=421011 152506 40675.9 29036.1 19266.6
threshold=293.31924497777783 2.3187333500000003e-07 0.60355339059327384 5.5392509166666674e-08 1.7934946000000001e-08
decision_type=2 2 2 2 2
left_child=1 4 -3 -2 -1
right_child=3 2 -4 -5 -6
leaf_value=-0.078081575148345128 -0.091593208168326556 0.079244683250241241 0.031706593363583016 -0.031570187898093315 -0.011904548519006986
leaf_weight=544.5 2254.5 2762 1988.5 675.5 584
leaf_count=534 2247 1621 1250 646 510
internal_value=0.000484062 0.039527 0.0593826 -0.0778084 -0.0439749
internal_weight=8809 5879 4750.5 2930 1128.5
internal_count=6808 3915 2871 2893 1044
is_linear=0
shrinkage=0.008


Tree=54
num_leaves=6
num_cat=0
split_feature=6 54 0 20 33
split_gain=414309 159469 48997.7 43994.3 28914.9
threshold=293.31924497777783 0.029353416780295405 1.2133608333333336e-07 3.3966352406666673e-08 0.01831357212969684
decision_type=2 2 2 2 2
left_child=1 2 -1 -3 -2
right_child=4 3 -4 -5 -6
leaf_value=-0.06904900640961284 -0.094434142386411499 0.1312903437080932 0.011524344480506338 0.059700078069814443 -0.040325496578140503
leaf_weight=662.5 1992.5 688 1758.5 2770 937.5
leaf_count=649 1982 441 1312 1513 911
internal_value=0.000479857 0.0392108 -0.0105742 0.0740508 -0.077187
internal_weight=8809 5879 2421 3458 2930
internal_count=6808 3915 1961 1954 2893
is_linear=0
shrinkage=0.008


Tree=55
num_leaves=6
num_cat=0
split_feature=5 54 33 42 33
split_gain=401906 92066.2 64383.4 39543.3 35474.4
threshold=299.34688000000006 0.029575249153768211 0.022717259446541849 0.6830127018922193 0.057815716281506023
decision_type=2 2 2 2 2
left_child=1 3 -2 -1 -3
right_child=2 4 -4 -5 -6
leaf_value=-0.030700487205744118 -0.086360065415307163 0.049875662041457693 -0.013617113303706036 0.043764035450760866 0.10369419652574929
leaf_weight=1083.5 2526 2039 1128 784 1285.5
leaf_count=952 2500 1114 1040 464 766
internal_value=0.00030701 0.0455365 -0.0639392 0.000570017 0.0707667
internal_weight=8846 5192 3654 1867.5 3324.5
internal_count=6836 3296 3540 1416 1880
is_linear=0
shrinkage=0.008


Tree=56
num_leaves=6
num_cat=0
split_feature=0 54 42 40 33
split_gain=393251 105948 47985.2 45819 42209
threshold=1.8142068660000004e-07 0.030273485318140846 0.25000000000000017 0.1294095225512602 0.011867083122738323
decision_type=2 2 2 2 2
left_child=4 2 -2 -3 -1
right_child=1 3 -4 -5 -6
leaf_value=-0.092685856354044457 -0.03589103171142901 0.11690715155867928 0.03468412001836027 0.05106882336716434 -0.035398421483431572
leaf_weight=1897 1100 1044 1395 1945 1465
leaf_count=1874 1046 583 902 1089 1342
internal_value=0.000304717 0.0420639 0.00355508 0.0741657 -0.0677825
internal_weight=8846 5484 2495 2989 3362
internal_count=6836 3620 1948 1672 3216
is_linear=0
shrinkage=0.008


Tree=57
num_leaves=6
num_cat=0
split_feature=6 54 40 10 33
split_gain=396955 144470 44597.4 30296.4 29693.9
threshold=293.47790166666675 0.026191013692116429 0.37940952255126048 2.6157678333333341e-08 0.022717259446541849
decision_type=2 2 2 2 2
left_child=1 3 -3 -1 -2
right_child=4 2 -4 -5 -6
leaf_value=-0.070348234152619454 -0.09167210253869025 0.085783020524691528 0.03549163519614109 0.0038828315858531353 -0.033694383373747722
leaf_weight=697.5 2130.5 2183 2352 705.5 777.5
leaf_count=678 2121 1260 1478 545 754
internal_value=0.000302366 0.0378045 0.0597454 -0.0330782 -0.0762284
internal_weight=8846 5938 4535 1403 2908
internal_count=6836 3961 2738 1223 2875
is_linear=0
shrinkage=0.008


Tree=58
num_leaves=6
num_cat=0
split_feature=6 54 40 10 33
split_gain=390638 142173 43887.4 29815.8 29220.3
threshold=293.47790166666675 0.026191013692116429 0.37940952255126048 2.6157678333333341e-08 0.022717259446541849
decision_type=2 2 2 2 2
left_child=1 3 -3 -1 -2
right_child=4 2 -4 -5 -6
leaf_value=-0.069787858142970213 -0.090939757432215898 0.085097698489434104 0.035208063482039163 0.0038519003290312342 -0.033425864260235638
leaf_weight=697.5 2130.5 2183 2352 705.5 777.5
leaf_count=678 2121 1260 1478 545 754
internal_value=0.000299737 0.0375023 0.0592681 -0.0328146 -0.0756197
internal_weight=8846 5938 4535 1403 2908
internal_count=6836 3961 2738 1223 2875
is_linear=0
shrinkage=0.008


Tree=59
num_leaves=6
num_cat=0
split_feature=6 11 40 33 35
split_gain=384422 135421 39830.9 28754.3 12566.9
threshold=293.47790166666675 1.3930460459183678e-07 0.37940952255126048 0.022717259446541849 12.500000000000002
decision_type=2 2 2 2 2
left_child=1 4 -3 -2 -1
right_child=3 2 -4 -5 -6
leaf_value=-0.072207634031816598 -0.090213262372226988 0.07461633525932175 0.029850764869107538 -0.033159485156922908 0.0065905853708585101
leaf_weight=674.5 2130.5 2595 2509.5 777.5 159
leaf_count=659 2121 1535 1624 754 143
internal_value=0.000297131 0.0372025 0.0526428 -0.0750158 -0.0571823
internal_weight=8846 5938 5104.5 2908 833.5
internal_count=6836 3961 3159 2875 802
is_linear=0
shrinkage=0.008


Tree=60
num_leaves=6
num_cat=0
split_feature=1 6 6 40 12
split_gain=376006 87036.5 54522 41770.9 36352.3
threshold=3.2972463500000005e-07 288.34032833333339 295.68298333333342 0.60355339059327384 1.8865577500000005e-07
decision_type=2 2 2 2 2
left_child=1 4 3 -2 -1
right_child=2 -3 -4 -5 -6
leaf_value=-0.054073822217307436 0.08584775581197629 -0.072363770568377853 -0.044811605830271328 0.033620949094278665 0.038605646647793007
leaf_weight=407 2138 3286.5 330 1822 795
leaf_count=387 1219 3227 321 1135 495
internal_value=9.25159e-05 -0.051075 0.0536306 0.0618668 0.00715107
internal_weight=8778.5 4488.5 4290 3960 1202
internal_count=6784 4109 2675 2354 882
is_linear=0
shrinkage=0.008


Tree=61
num_leaves=6
num_cat=0
split_feature=6 54 11 40 3
split_gain=370063 134449 47893.2 36123.4 30371.7
threshold=293.31924497777783 0.029575249153768211 1.3930460459183678e-07 1.0000000180025095e-35 5.3472130000000006e-08
decision_type=2 2 2 2 2
left_child=1 2 -1 -3 -2
right_child=4 3 -4 -5 -6
leaf_value=-0.057774801409837352 -0.088537424827346001 0.10852840138721268 0.016690990475147799 0.051931905466192446 -0.029300757527826318
leaf_weight=804.5 2172.5 1076.5 1749 2226 750
leaf_count=775 2166 608 1264 1255 716
internal_value=9.17214e-05 0.0367848 -0.00680248 0.0704682 -0.073388
internal_weight=8778.5 5856 2553.5 3302.5 2922.5
internal_count=6784 3902 2039 1863 2882
is_linear=0
shrinkage=0.008


Tree=62
num_leaves=6
num_cat=0
split_feature=1 6 6 40 11
split_gain=364926 84539.8 52759.5 40836.9 35459
threshold=3.2972463500000005e-07 288.34032833333339 295.68298333333342 0.60355339059327384 1.1663313666666668e-07
decision_type=2 2 2 2 2
left_child=1 4 3 -2 -1
right_child=2 -3 -4 -5 -6
leaf_value=-0.062900148182484641 0.084647450441859104 -0.071298150531126564 -0.044003467387086284 0.033008545588812957 0.033915312315754488
leaf_weight=332 2138 3286.5 330 1822 870
leaf_count=323 1219 3227 321 1135 559
internal_value=9.09736e-05 -0.050317 0.0528343 0.0609364 0.00706765
internal_weight=8778.5 4488.5 4290 3960 1202
internal_count=6784 4109 2675 2354 882
is_linear=0
shrinkage=0.008


Tree=63
num_leaves=6
num_cat=0
split_feature=12 41 33 33 33
split_gain=355378 73654.8 55643.8 37667.2 22211.5
threshold=2.8821981333333338e-07 -0.6830127018922193 0.011867083122738323 0.015916978250005803 0.076517134941760545
decision_type=2 2 2 2 2
left_child=2 -2 -1 -3 -4
right_child=1 3 4 -5 -6
leaf_value=-0.086510181453620494 -0.015057905861030505 0.014655971665480097 -0.040502253643180886 0.074614791564171695 0.025408247555985003
leaf_weight=1995.5 1020.5 865.5 1464.5 3014 418.5
leaf_count=1959 831 534 1340 1762 358
internal_value=9.01546e-05 0.0453661 -0.057096 0.061265 -0.0258258
internal_weight=8778.5 4900 3878.5 3879.5 1883
internal_count=6784 3127 3657 2296 1698
is_linear=0
shrinkage=0.008


Tree=64
num_leaves=6
num_cat=0
split_feature=6 1 40 3 10
split_gain=354862 126384 36622.8 29449.3 17084.8
threshold=293.31924497777783 2.3539371500000005e-07 0.60355339059327384 5.3472130000000006e-08 1.6643575000000004e-08
decision_type=2 2 2 2 2
left_child=1 4 -3 -2 -1
right_child=3 2 -4 -5 -6
leaf_value=-0.074730026420918402 -0.086782738029021853 0.073194675066712137 0.028065094063926616 -0.028454746476323858 -0.011995823269217897
leaf_weight=501.5 2172.5 2730 2001 750 623.5
leaf_count=495 2166 1590 1276 716 541
internal_value=8.93405e-05 0.036021 0.054141 -0.0718654 -0.0401034
internal_weight=8778.5 5856 4731 2922.5 1125
internal_count=6784 3902 2866 2882 1036
is_linear=0
shrinkage=0.008


Tree=65
num_leaves=6
num_cat=0
split_feature=6 54 11 40 30
split_gain=353802 130823 41939.5 38097.1 27296.7
threshold=293.31924497777783 0.029575249153768211 1.2133608333333336e-07 1.0000000180025095e-35 201.76751147594507
decision_type=2 2 2 2 2
left_child=1 2 -1 -3 -2
right_child=4 3 -4 -5 -6
leaf_value=-0.062785415701406763 -0.040996078611831223 0.10610149299412845 0.010989451743351916 0.048664281454605635 -0.091230038765110141
leaf_weight=666.5 1127 1105.5 1869 2260 1834
leaf_count=648 1100 625 1379 1272 1829
internal_value=-0.000859217 0.0349421 -0.00844695 0.0676149 -0.0721779
internal_weight=8862 5901 2535.5 3365.5 2961
internal_count=6853 3924 2027 1897 2929
is_linear=0
shrinkage=0.008


Tree=66
num_leaves=6
num_cat=0
split_feature=5 54 30 6 40
split_gain=350921 78299.8 47601.4 42239.2 35701.2
threshold=299.34688000000006 0.029575249153768211 221.65611611111109 293.13268710884364 1.0000000180025095e-35
decision_type=2 2 2 2 2
left_child=1 -1 3 -2 -3
right_child=2 4 -4 -5 -6
leaf_value=-0.00020282190757776893 0.063136396413065066 0.10300675204133451 -0.081739311233456541 -0.045890005442025386 0.046704347432135203
leaf_weight=1844 290 1063 2382 1014 2269
leaf_count=1392 229 594 2354 997 1287
internal_value=-0.000852404 0.0416186 -0.0604824 -0.0215388 0.0647489
internal_weight=8862 5176 3686 1304 3332
internal_count=6853 3273 3580 1226 1881
is_linear=0
shrinkage=0.008


Tree=67
num_leaves=6
num_cat=0
split_feature=6 54 0 40 4
split_gain=343600 126531 41216.8 36949.3 26900.7
threshold=293.31924497777783 0.029575249153768211 1.0791660666666672e-07 1.0000000180025095e-35 252.1972705555556
decision_type=2 2 2 2 2
left_child=1 2 -1 -3 -2
right_child=4 3 -4 -5 -6
leaf_value=-0.069042779140455299 -0.043751152503002294 0.10447100313569062 0.0088341033832534006 0.047905220388717563 -0.092528216354793469
leaf_weight=554 1303.5 1105.5 1981.5 2260 1657.5
leaf_count=545 1275 625 1482 1272 1654
internal_value=-0.000845337 0.034436 -0.00823539 0.0665684 -0.0711282
internal_weight=8862 5901 2535.5 3365.5 2961
internal_count=6853 3924 2027 1897 2929
is_linear=0
shrinkage=0.008


Tree=68
num_leaves=6
num_cat=0
split_feature=5 33 33 6 6
split_gain=340153 65598.5 56320.3 35318.7 14245.9
threshold=299.34688000000006 0.0076314593191939848 0.055757265800578673 286.77624944444455 290.22529611111116
decision_type=2 2 2 2 2
left_child=1 4 -2 -3 -1
right_child=2 3 -4 -5 -6
leaf_value=-0.0086849806556751671 -0.073495539080499925 0.069860209987443661 0.010432551595324137 0.025552899746819759 -0.095089601935195056
leaf_weight=283 3073.5 2605.5 612.5 2074 213.5
leaf_count=194 3033 1449 547 1417 213
internal_value=-0.000838676 0.0409757 -0.0595467 0.050256 -0.0462278
internal_weight=8862 5176 3686 4679.5 496.5
internal_count=6853 3273 3580 2866 407
is_linear=0
shrinkage=0.008


Tree=69
num_leaves=6
num_cat=0
split_feature=5 54 30 6 42
split_gain=334735 75366.4 46042.9 40867.3 34992.9
threshold=299.34688000000006 0.029575249153768211 221.65611611111109 294.87608944444452 0.6830127018922193
decision_type=2 2 2 2 2
left_child=1 4 3 -2 -1
right_child=2 -3 -4 -5 -6
leaf_value=-0.029186402667232388 0.055421047681490108 0.063340640279537869 -0.079976583011911503 -0.046958861612613048 0.041649596639809772
leaf_weight=1095 332.5 3332 2382 971.5 749
leaf_count=950 270 1881 2354 956 442
internal_value=-0.000832142 0.0406478 -0.0590707 -0.020771 -0.000382335
internal_weight=8862 5176 3686 1304 1844
internal_count=6853 3273 3580 1226 1392
is_linear=0
shrinkage=0.008


Tree=70
num_leaves=6
num_cat=0
split_feature=54 42 33 33 41
split_gain=322269 110330 52435.9 44411.5 35842
threshold=0.030075141690246703 0.25000000000000017 0.030914671970813903 0.016862832432109877 -0.6830127018922193
decision_type=2 2 2 2 2
left_child=1 2 -1 -2 -3
right_child=3 4 -4 -5 -6
leaf_value=-0.081971557181837726 0.003710723120565633 -0.031747154822637298 -0.014902077973250832 0.077516943329726765 0.038523256546579121
leaf_weight=2612.5 652 751 1047 2627.5 1207
leaf_count=2605 422 648 978 1464 753
internal_value=-0.000113389 -0.0368985 -0.0628161 0.0628664 0.0115532
internal_weight=8897 5617.5 3659.5 3279.5 1958
internal_count=6870 4984 3583 1886 1401
is_linear=0
shrinkage=0.008


Tree=71
num_leaves=6
num_cat=0
split_feature=6 54 0 33 3
split_gain=318447 122328 39279 33798.2 25638.7
threshold=293.31924497777783 0.029575249153768211 1.3073452893333337e-07 0.016862832432109877 5.312770383333334e-08
decision_type=2 2 2 2 2
left_child=1 2 -1 -3 -2
right_child=4 3 -4 -5 -6
leaf_value=-0.056242694834868115 -0.081831130977683644 0.012664649092069068 0.012224571897322541 0.077513892130130574 -0.027454519137878844
leaf_weight=756 2199 636 1824 2733 749
leaf_count=730 2191 378 1342 1512 717
internal_value=-0.000112488 0.0335747 -0.00787221 0.0652997 -0.0680644
internal_weight=8897 5949 2580 3369 2948
internal_count=6870 3962 2072 1890 2908
is_linear=0
shrinkage=0.008


Tree=72
num_leaves=6
num_cat=0
split_feature=6 54 0 40 3
split_gain=313380 120382 38698.4 37235.6 25229.8
threshold=293.31924497777783 0.029575249153768211 1.2133608333333336e-07 1.0000000180025095e-35 5.312770383333334e-08
decision_type=2 2 2 2 2
left_child=1 2 -1 -3 -2
right_child=4 3 -4 -5 -6
leaf_value=-0.05980030216103735 -0.081177374358952961 0.10170791968753652 0.010611556218553196 0.045505934117371548 -0.027235759316780107
leaf_weight=673.5 2199 1150.5 1906.5 2218.5 749
leaf_count=658 2191 642 1414 1248 717
internal_value=-0.00011174 0.0333063 -0.00780958 0.064778 -0.0675208
internal_weight=8897 5949 2580 3369 2948
internal_count=6870 3962 2072 1890 2908
is_linear=0
shrinkage=0.008


Tree=73
num_leaves=6
num_cat=0
split_feature=6 1 40 3 10
split_gain=308394 108441 36988.1 24827.4 15263.4
threshold=293.31924497777783 2.3187333500000003e-07 0.78656609248549303 5.312770383333334e-08 1.7934946000000001e-08
decision_type=2 2 2 2 2
left_child=1 4 -3 -2 -1
right_child=3 2 -4 -5 -6
leaf_value=-0.068216059976941607 -0.080528839949907546 0.064127319447197073 0.016040814028890613 -0.027018742519688416 -0.0089947702173046439
leaf_weight=543.5 2199 3355.5 1478 749 572
leaf_count=533 2191 1981 951 717 497
internal_value=-0.000110856 0.0330403 0.0494465 -0.0669816 -0.0379723
internal_weight=8897 5949 4833.5 2948 1115.5
internal_count=6870 3962 2932 2908 1030
is_linear=0
shrinkage=0.008


Tree=74
num_leaves=6
num_cat=0
split_feature=1 6 40 48 0
split_gain=304090 82072.7 45843.3 29862.6 29187.9
threshold=3.4834351666666676e-07 287.80179055555567 0.60355339059327384 1.0000000180025095e-35 1.0902076166666668e-07
decision_type=2 2 2 2 2
left_child=1 4 -2 -3 -1
right_child=2 3 -4 -5 -6
leaf_value=-0.060453008102760455 0.075900513323570576 -0.073407046433652631 0.022231993645621537 -0.012033190670375778 0.033045373841632107
leaf_weight=270.5 2155.5 2943.5 1938 615.5 974
leaf_count=263 1261 2893 1257 574 622
internal_value=-0.00011027 -0.0432758 0.0505318 -0.0628176 0.0126104
internal_weight=8897 4803.5 4093.5 3559 1244.5
internal_count=6870 4352 2518 3467 885
is_linear=0
shrinkage=0.008


Tree=75
num_leaves=6
num_cat=0
split_feature=12 41 6 33 33
split_gain=306524 56207.4 55871.8 34751.8 34285.5
threshold=3.1544620500000003e-07 -0.6830127018922193 287.66901388888897 0.031627462682493467 0.015916978250005803
decision_type=2 2 2 2 2
left_child=2 -2 -1 -4 -3
right_child=1 4 3 -5 -6
leaf_value=0.0058495694951116424 -0.01150644205791997 0.01117065491562798 -0.076698238164175189 -0.01512629954078964 0.072525370575253656
leaf_weight=968.5 865.5 732 2638 757.5 2898
leaf_count=731 693 459 2620 708 1668
internal_value=2.39713e-05 0.0463739 -0.0477171 -0.0629936 0.060178
internal_weight=8859.5 4495.5 4364 3395.5 3630
internal_count=6879 2820 4059 3328 2127
is_linear=0
shrinkage=0.008


Tree=76
num_leaves=6
num_cat=0
split_feature=1 6 33 40 6
split_gain=302875 63813 48139.6 35944.7 21324.2
threshold=2.8990814586666677e-07 294.87608944444452 0.011417004480546155 0.60355339059327384 287.66901388888897
decision_type=2 2 2 2 2
left_child=2 3 -1 -2 -4
right_child=1 -3 4 -5 -6
leaf_value=-0.0793844845996933 0.073442789618220497 -0.041084758688920531 0.013192465612917356 0.027051547461648319 -0.042012047404408323
leaf_weight=1984.5 2380.5 519 664.5 1951 1360
leaf_count=1949 1392 503 502 1217 1316
internal_value=2.37242e-05 0.0425391 -0.0514041 0.052585 -0.0238897
internal_weight=8859.5 4850.5 4009 4331.5 2024.5
internal_count=6879 3112 3767 2609 1818
is_linear=0
shrinkage=0.008


Tree=77
num_leaves=6
num_cat=0
split_feature=12 6 6 40 33
split_gain=297339 54209.1 54150.1 37685.3 33836.6
threshold=3.1544620500000003e-07 295.08301944444452 287.66901388888897 0.60355339059327384 0.031627462682493467
decision_type=2 2 2 2 2
left_child=2 3 -1 -2 -4
right_child=1 -3 4 -5 -6
leaf_value=0.005737693079621198 0.076701136760181129 -0.044171624854472458 -0.075559158672115975 0.028011716077750576 -0.01480370632835825
leaf_weight=968.5 2208 390 2638 1897.5 757.5
leaf_count=731 1266 378 2620 1176 708
internal_value=2.33843e-05 0.0456737 -0.046997 0.0542394 -0.0620362
internal_weight=8859.5 4495.5 4364 4105.5 3395.5
internal_count=6879 2820 4059 2442 3328
is_linear=0
shrinkage=0.008


Tree=78
num_leaves=6
num_cat=0
split_feature=1 6 41 33 33
split_gain=294135 66856.6 43242.4 33345.6 30783.3
threshold=3.3318983833333338e-07 287.66901388888897 -0.6830127018922193 0.016348730476748088 0.015916978250005803
decision_type=2 2 2 2 2
left_child=1 -1 -2 -4 -3
right_child=2 4 3 -5 -6
leaf_value=0.010407914112396947 -0.005175089132061733 -0.078991860583657397 0.0092906815467485755 0.072326284064482091 -0.029546701151929037
leaf_weight=1091 795.5 2249 667 2791.5 1265.5
leaf_count=791 620 2232 422 1611 1203
internal_value=2.31138e-05 -0.0442624 0.04797 0.0601937 -0.0612337
internal_weight=8859.5 4605.5 4254 3458.5 3514.5
internal_count=6879 4226 2653 2033 3435
is_linear=0
shrinkage=0.008


Tree=79
num_leaves=6
num_cat=0
split_feature=1 6 40 33 6
split_gain=289454 65793.2 42714.6 30292.8 28618.2
threshold=3.3318983833333338e-07 287.66901388888897 0.60355339059327384 0.015916978250005803 288.66596666666675
decision_type=2 2 2 2 2
left_child=1 -1 -2 -3 -4
right_child=2 3 4 -5 -6
leaf_value=0.010324879067165052 0.071642753471513942 -0.078360767362543368 0.041655671943374245 -0.029310886525842305 -0.022632091340404458
leaf_weight=1091 2237 2249 1364 1265.5 653
leaf_count=791 1343 2232 749 1203 561
internal_value=2.28524e-05 -0.0439088 0.0475867 -0.0607447 0.02083
internal_weight=8859.5 4605.5 4254 3514.5 2017
internal_count=6879 4226 2653 3435 1310
is_linear=0
shrinkage=0.008


Tree=80
num_leaves=6
num_cat=0
split_feature=1 6 6 40 33
split_gain=283678 56448.3 53524.7 37151.3 25896.5
threshold=3.1548953000000007e-07 287.93346388888892 295.44904111111117 0.60355339059327384 0.031627462682493467
decision_type=2 2 2 2 2
left_child=1 -1 3 -2 -3
right_child=2 4 -4 -5 -6
leaf_value=0.0044342454369384254 0.075052701727896354 -0.073602271286886872 -0.047803691850320712 0.026676922155597145 -0.017669271647662861
leaf_weight=1068 2203.5 2650.5 367 1895.5 666
leaf_count=801 1272 2625 363 1185 632
internal_value=-0.000428388 -0.0461254 0.0444311 0.052723 -0.0624023
internal_weight=8850.5 4384.5 4466 4099 3316.5
internal_count=6878 4058 2820 2457 3257
is_linear=0
shrinkage=0.008


Tree=81
num_leaves=6
num_cat=0
split_feature=54 42 30 41 31
split_gain=280620 100241 37100.6 31035.6 27307
threshold=0.030221720410142084 0.25000000000000017 207.60371611111108 -0.6830127018922193 1.8401659863945385
decision_type=2 2 2 2 2
left_child=1 2 -1 -3 -2
right_child=4 3 -4 -5 -6
leaf_value=-0.027334552259424879 0.032921381720641532 -0.027518209658923345 -0.078695943450501987 0.036598241457867144 0.081429171948016313
leaf_weight=1523 1280 783 2219.5 1251 1794
leaf_count=1451 689 668 2212 789 1069
internal_value=-0.000425032 -0.0332848 -0.0578385 0.0119022 0.061289
internal_weight=8850.5 5776.5 3742.5 2034 3074
internal_count=6878 5120 3663 1457 1758
is_linear=0
shrinkage=0.008


Tree=82
num_leaves=6
num_cat=0
split_feature=54 42 33 33 41
split_gain=276156 98645.6 46942.3 35681.2 30542.6
threshold=0.030221720410142084 0.25000000000000017 0.030914671970813903 0.016348730476748088 -0.6830127018922193
decision_type=2 2 2 2 2
left_child=1 2 -1 -2 -3
right_child=3 4 -4 -5 -6
leaf_value=-0.075272335307443705 0.001966235411259766 -0.027298904412575351 -0.012487027149471901 0.073424806955970895 0.036306155857453316
leaf_weight=2674 544 783 1068.5 2530 1251
leaf_count=2665 351 668 998 1407 789
internal_value=-0.000421567 -0.0330189 -0.0573766 0.0607997 0.0118071
internal_weight=8850.5 5776.5 3742.5 3074 2034
internal_count=6878 5120 3663 1758 1457
is_linear=0
shrinkage=0.008


Tree=83
num_leaves=6
num_cat=0
split_feature=1 6 6 40 54
split_gain=271850 60491.3 44111.7 37023.4 34523.5
threshold=3.3318983833333338e-07 292.40600611111114 295.44904111111117 0.78656609248549303 0.026191013692116429
decision_type=2 2 2 2 2
left_child=1 4 3 -2 -1
right_child=2 -3 -4 -5 -6
leaf_value=-0.039223839626699598 0.070761069995875767 -0.068048573923323474 -0.045528689552883722 0.019272002285574068 0.028425016006028956
leaf_weight=1088 2571 2640.5 312.5 1375.5 863
leaf_count=989 1483 2621 309 874 602
internal_value=-0.000418185 -0.0431088 0.0455986 0.0528486 -0.0092923
internal_weight=8850.5 4591.5 4259 3946.5 1951
internal_count=6878 4212 2666 2357 1591
is_linear=0
shrinkage=0.008


Tree=84
num_leaves=6
num_cat=0
split_feature=54 42 33 40 41
split_gain=268408 95571.2 45805.3 38553.9 29946.3
threshold=0.030221720410142084 0.25000000000000017 0.030914671970813903 1.0000000180025095e-35 -0.6830127018922193
decision_type=2 2 2 2 2
left_child=1 2 -1 -2 -3
right_child=3 4 -4 -5 -6
leaf_value=-0.07420455738344342 0.10151326048911045 -0.027151966808558119 -0.012184592626568206 0.040533173570378417 0.035829083176855549
leaf_weight=2674 974 783 1068.5 2100 1251
leaf_count=2665 575 668 998 1183 789
internal_value=-0.000414915 -0.0325518 -0.0565269 0.0599414 0.0115701
internal_weight=8850.5 5776.5 3742.5 3074 2034
internal_count=6878 5120 3663 1758 1457
is_linear=0
shrinkage=0.008


Tree=85
num_leaves=6
num_cat=0
split_feature=6 54 40 3 10
split_gain=266378 108066 39665.9 22806.5 22054.2
threshold=293.31924497777783 0.026191013692116429 0.60355339059327384 5.8197779166666678e-08 2.0298142916666672e-08
decision_type=2 2 2 2 2
left_child=1 4 -3 -2 -1
right_child=3 2 -4 -5 -6
leaf_value=-0.069124192791631442 -0.072856263303516008 0.071257991420839051 0.023569459423840047 -0.015543228060356762 -0.0042234580832299336
leaf_weight=554 2355.5 2545 1997 551 844
leaf_count=546 2348 1485 1261 522 674
internal_value=0.000691835 0.0313991 0.0503244 -0.0620252 -0.0300496
internal_weight=8846.5 5940 4542 2906.5 1398
internal_count=6836 3966 2746 2870 1220
is_linear=0
shrinkage=0.008


Tree=86
num_leaves=6
num_cat=0
split_feature=1 42 33 40 41
split_gain=260434 62689.5 49679.2 46060.7 26237.9
threshold=3.4834351666666676e-07 0.6830127018922193 0.056828745722297368 0.60355339059327384 -0.6830127018922193
decision_type=2 2 2 2 2
left_child=1 2 -1 -2 -5
right_child=3 -3 -4 4 -6
leaf_value=-0.064147789488129978 0.073150568377452693 0.02791698077546767 0.012804893531447002 -0.039594660876030773 0.033917607883943025
leaf_weight=3384 2139 743 636.5 385 1559
leaf_count=3304 1267 436 566 345 918
internal_value=0.000686064 -0.0394868 -0.0519597 0.0475539 0.01931
internal_weight=8846.5 4763.5 4020.5 4083 1944
internal_count=6836 4306 3870 2530 1263
is_linear=0
shrinkage=0.008


Tree=87
num_leaves=6
num_cat=0
split_feature=6 1 40 3 10
split_gain=258826 91836.8 36178.3 22247.8 13379
threshold=293.31924497777783 2.2446348048843539e-07 0.60355339059327384 5.8197779166666678e-08 1.7934946000000001e-08
decision_type=2 2 2 2 2
left_child=1 4 -3 -2 -1
right_child=3 2 -4 -5 -6
leaf_value=-0.064466509114985582 -0.071838306967579632 0.064105844258031022 0.019882590953613583 -0.015232058686469867 -0.007697827953953699
leaf_weight=534 2355.5 2837 2039.5 551 529.5
leaf_count=524 2348 1676 1300 522 466
internal_value=0.000680713 0.0309496 0.045638 -0.0611408 -0.0363222
internal_weight=8846.5 5940 4876.5 2906.5 1063.5
internal_count=6836 3966 2976 2870 990
is_linear=0
shrinkage=0.008


Tree=88
num_leaves=6
num_cat=0
split_feature=6 54 40 4 10
split_gain=254705 104388 38079.3 21134.1 21002
threshold=293.31924497777783 0.026191013692116429 0.60355339059327384 252.1972705555556 2.0298142916666672e-08
decision_type=2 2 2 2 2
left_child=1 4 -3 -2 -1
right_child=3 2 -4 -5 -6
leaf_value=-0.067822892016418543 -0.036688156442785495 0.06981317593127466 0.023087757018172183 -0.080211664459196919 -0.0044867713024499996
leaf_weight=554 1310.5 2545 1997 1596 844
leaf_count=546 1277 1485 1261 1593 674
internal_value=0.000675009 0.030702 0.0493024 -0.0606525 -0.0296914
internal_weight=8846.5 5940 4542 2906.5 1398
internal_count=6836 3966 2746 2870 1220
is_linear=0
shrinkage=0.008


Tree=89
num_leaves=6
num_cat=0
split_feature=6 54 40 3 10
split_gain=250652 102729 37472.8 21734.3 20669
threshold=293.31924497777783 0.026191013692116429 0.60355339059327384 5.8197779166666678e-08 2.0298142916666672e-08
decision_type=2 2 2 2 2
left_child=1 4 -3 -2 -1
right_child=3 2 -4 -5 -6
leaf_value=-0.067283231638492327 -0.07074148624879735 0.069255328204088043 0.022903332373008133 -0.014793806421479701 -0.0044510045795489233
leaf_weight=554 2355.5 2545 1997 551 844
leaf_count=546 2348 1485 1261 522 674
internal_value=0.000669294 0.0304564 0.0489085 -0.0601683 -0.0294552
internal_weight=8846.5 5940 4542 2906.5 1398
internal_count=6836 3966 2746 2870 1220
is_linear=0
shrinkage=0.008


Tree=90
num_leaves=6
num_cat=0
split_feature=1 42 33 40 13
split_gain=252714 53139 47398.7 37559.6 21374.1
threshold=3.4834351666666676e-07 0.6830127018922193 0.042777426152516472 0.60355339059327384 289.72855777777789
decision_type=2 2 2 2 2
left_child=1 2 -1 -2 -5
right_child=3 -3 -4 4 -6
leaf_value=-0.063930260205055336 0.069609977346267699 0.024293526791005129 0.0045085452566366599 0.04347504858772662 -0.010312254673480988
leaf_weight=3242 2154 718 808 1129 809.5
leaf_count=3171 1256 429 727 575 668
internal_value=0.000532762 -0.0390362 -0.0502781 0.0466326 0.0210224
internal_weight=8860.5 4768 4050 4092.5 1938.5
internal_count=6826 4327 3898 2499 1243
is_linear=0
shrinkage=0.008


Tree=91
num_leaves=6
num_cat=0
split_feature=1 6 41 54 40
split_gain=248691 62158.8 38999.4 25840.1 24518.3
threshold=3.4834351666666676e-07 287.80179055555567 -0.6830127018922193 0.02047777761007125 0.78656609248549303
decision_type=2 2 2 2 2
left_child=1 3 -2 -1 -4
right_child=2 -3 4 -5 -6
leaf_value=-0.049086862982296552 -0.0056639154373103436 -0.055585895795188744 0.074012107567473992 0.033379784371937879 0.028525811128882222
leaf_weight=332.5 754 3555 2159 880.5 1179.5
leaf_count=315 577 3464 1236 548 686
internal_value=0.000528701 -0.038724 0.0462601 0.0106928 0.0579877
internal_weight=8860.5 4768 4092.5 1213 3338.5
internal_count=6826 4327 2499 863 1922
is_linear=0
shrinkage=0.008


Tree=92
num_leaves=6
num_cat=0
split_feature=1 6 6 54 33
split_gain=244733 61168.3 34073.4 25431.1 25365.4
threshold=3.4834351666666676e-07 287.80179055555567 295.68298333333342 0.02047777761007125 0.015916978250005803
decision_type=2 2 2 2 2
left_child=1 3 -2 -1 -3
right_child=2 4 -4 -5 -6
leaf_value=-0.048697680007949495 0.052156385971254243 -0.071394923196648752 -0.038841586977611357 0.033113653047717621 -0.026935836774968809
leaf_weight=332.5 3812 2252 280.5 880.5 1303
leaf_count=315 2224 2230 275 548 1234
internal_value=0.000524523 -0.0384146 0.0458906 0.0106068 -0.0551416
internal_weight=8860.5 4768 4092.5 1213 3555
internal_count=6826 4327 2499 863 3464
is_linear=0
shrinkage=0.008


Tree=93
num_leaves=6
num_cat=0
split_feature=1 6 40 54 33
split_gain=240837 60194.2 36577.2 25028.6 24961.2
threshold=3.4834351666666676e-07 287.80179055555567 0.60355339059327384 0.02047777761007125 0.015916978250005803
decision_type=2 2 2 2 2
left_child=1 3 -2 -1 -3
right_child=2 4 -4 -5 -6
leaf_value=-0.048311582290135803 0.068198088317363417 -0.070824523706981155 0.02025153128199899 0.032849643265384698 -0.026720845116830073
leaf_weight=332.5 2154 2252 1938.5 880.5 1303
leaf_count=315 1256 2230 1243 548 1234
internal_value=0.00052 -0.0381079 0.0455235 0.0105215 -0.0547012
internal_weight=8860.5 4768 4092.5 1213 3555
internal_count=6826 4327 2499 863 3464
is_linear=0
shrinkage=0.008


Tree=94
num_leaves=6
num_cat=0
split_feature=1 6 41 54 30
split_gain=237006 59235.7 38095.9 24632.5 23836
threshold=3.4834351666666676e-07 287.80179055555567 -0.6830127018922193 0.02047777761007125 88.64434491333337
decision_type=2 2 2 2 2
left_child=1 3 -2 -1 -3
right_child=2 4 -4 -5 -6
leaf_value=-0.047928544639658337 -0.006157093554380863 -0.0017127088950135401 0.056750947824361728 0.032587738391920612 -0.062431532534400133
leaf_weight=332.5 754 479 3338.5 880.5 3076
leaf_count=315 577 444 1922 548 3020
internal_value=0.000515755 -0.0378036 0.0451599 0.0104369 -0.0542643
internal_weight=8860.5 4768 4092.5 1213 3555
internal_count=6826 4327 2499 863 3464
is_linear=0
shrinkage=0.008


Tree=95
num_leaves=6
num_cat=0
split_feature=54 42 40 30 41
split_gain=237231 77138.8 33575 29625.3 26989.1
threshold=0.030075141690246703 0.25000000000000017 1.0000000180025095e-35 201.76751147594507 -0.6830127018922193
decision_type=2 2 2 2 2
left_child=1 3 -2 -1 -3
right_child=2 4 -4 -5 -6
leaf_value=-0.025328145826559834 0.089631835968896678 -0.028977988412401762 0.035275511898967472 -0.072099745237212243 0.032409811346048825
leaf_weight=1429.5 1090.5 744 2201 2223.5 1183
leaf_count=1362 633 639 1260 2217 748
internal_value=-0.000477946 -0.0322481 0.0533555 -0.0538383 0.00868989
internal_weight=8871.5 5580 3291.5 3653 1927
internal_count=6859 4966 1893 3579 1387
is_linear=0
shrinkage=0.008


Tree=96
num_leaves=6
num_cat=0
split_feature=54 42 20 30 41
split_gain=233458 75911.2 29634.3 29153.4 26560.4
threshold=0.030075141690246703 0.25000000000000017 3.3966352406666673e-08 201.76751147594507 -0.6830127018922193
decision_type=2 2 2 2 2
left_child=1 3 -2 -1 -3
right_child=2 4 -4 -5 -6
leaf_value=-0.025125945011233785 0.099243341309744562 -0.028747095611286782 0.040402334667701593 -0.0715237246198622 0.032151188684994912
leaf_weight=1429.5 696 744 2595.5 2223.5 1183
leaf_count=1362 456 639 1437 2217 748
internal_value=-0.000474021 -0.0319906 0.0529296 -0.0534082 0.00862033
internal_weight=8871.5 5580 3291.5 3653 1927
internal_count=6859 4966 1893 3579 1387
is_linear=0
shrinkage=0.008


Tree=97
num_leaves=6
num_cat=0
split_feature=54 0 40 40 18
split_gain=229746 68074.1 38728.8 32727.8 12894.1
threshold=0.030075141690246703 1.4437327333333335e-07 0.37940952255126048 1.0000000180025095e-35 287.92104835555563
decision_type=2 2 2 2 2
left_child=1 -1 -3 -2 -5
right_child=3 2 -4 4 -6
leaf_value=-0.063228724388668195 0.088322784722205658 0.017679846433845955 -0.039097886116948137 0.052286928842028145 0.013331682500481503
leaf_weight=2455.5 1090.5 1770 1354.5 1202 999
leaf_count=2413 633 1313 1240 589 671
internal_value=-0.000470085 -0.0317351 -0.00694133 0.0525072 0.034657
internal_weight=8871.5 5580 3124.5 3291.5 2201
internal_count=6859 4966 2553 1893 1260
is_linear=0
shrinkage=0.008


Tree=98
num_leaves=6
num_cat=0
split_feature=54 42 33 33 40
split_gain=226093 74167 35347.6 33982.5 26716.2
threshold=0.030075141690246703 0.25000000000000017 0.042181170011703996 0.016348730476748088 1.0000000180025095e-35
decision_type=2 2 2 2 2
left_child=1 2 -1 -2 -5
right_child=3 -3 -4 4 -6
leaf_value=-0.06609709753676983 -0.001610008181000201 0.0086597913257816291 -0.0065739698326321809 0.09847471737223347 0.045496415672118304
leaf_weight=2826.5 613 1927 826.5 949.5 1729
leaf_count=2816 398 1387 763 550 945
internal_value=-0.000466083 -0.0314815 -0.0526518 0.0520884 0.0643733
internal_weight=8871.5 5580 3653 3291.5 2678.5
internal_count=6859 4966 3579 1893 1495
is_linear=0
shrinkage=0.008


Tree=99
num_leaves=6
num_cat=0
split_feature=6 1 40 39 10
split_gain=215750 84308.3 33870.3 18802.9 11554.2
threshold=293.31924497777783 2.3187333500000003e-07 0.37940952255126048 -0.60355339059327362 2.0298142916666672e-08
decision_type=2 2 2 2 2
left_child=1 4 -3 -2 -1
right_child=3 2 -4 -5 -6
leaf_value=-0.058617270527215264 -0.025002139797007331 0.063425196888067831 0.020875042028483396 -0.069507755596093887 -0.0073058105016743429
leaf_weight=602.5 867.5 2375 2424 2075 527.5
leaf_count=590 844 1367 1533 2064 461
internal_value=-0.000462124 0.0273264 0.0419635 -0.0564323 -0.0347648
internal_weight=8871.5 5929 4799 2942.5 1130
internal_count=6859 3951 2900 2908 1051
is_linear=0
shrinkage=0.008


Tree=100
num_leaves=6
num_cat=0
split_feature=1 42 33 40 41
split_gain=216863 61989.9 50642.1 36175 18794.6
threshold=3.997235200000001e-07 0.6830127018922193 0.057815716281506023 0.60355339059327384 -0.6830127018922193
decision_type=2 2 2 2 2
left_child=1 2 -1 -2 -5
right_child=3 -3 -4 4 -6
leaf_value=-0.057727432519136208 0.072893578372765916 0.025263951499902789 0.01480986531030876 -0.033514871775870411 0.034499618324785368
leaf_weight=3558.5 1862.5 979 743 316 1407
leaf_count=3474 1068 579 643 278 816
internal_value=0.00047551 -0.0321187 -0.0451918 0.0484704 0.0219775
internal_weight=8866 5280.5 4301.5 3585.5 1723
internal_count=6858 4696 4117 2162 1094
is_linear=0
shrinkage=0.008


Tree=101
num_leaves=6
num_cat=0
split_feature=54 42 33 33 40
split_gain=215038 77187.5 48095 34102.9 26788.2
threshold=0.030075141690246703 0.6830127018922193 0.026911802393848879 0.018796680037000638 0.78656609248549303
decision_type=2 2 2 2 2
left_child=1 2 -1 -2 -5
right_child=3 -3 -4 4 -6
leaf_value=-0.062732963996318419 0.0051125418251666693 0.035641367690970052 -0.0094213733580525271 0.085593568841856441 0.0304498045529282
leaf_weight=2928.5 758 961 1721 1626 871.5
leaf_count=2893 459 579 1514 908 505
internal_value=0.000471876 -0.0295334 -0.0430229 0.0521685 0.0664188
internal_weight=8866 5610.5 4649.5 3255.5 2497.5
internal_count=6858 4986 4407 1872 1413
is_linear=0
shrinkage=0.008


Tree=102
num_leaves=6
num_cat=0
split_feature=0 6 40 33 0
split_gain=211083 71659.5 36119 27771.6 22884.5
threshold=2.8374038333333339e-07 286.58791555555564 0.60355339059327384 0.038938375725541367 1.2562923166666669e-07
decision_type=2 2 2 2 2
left_child=1 4 -2 -3 -1
right_child=2 3 -4 -5 -6
leaf_value=-0.045080527665615079 0.072268226540782923 -0.059497281467783464 0.021384951480384429 -0.0078139518904510666 0.037054227051016207
leaf_weight=272 1860 3133.5 1724 847 1029.5
leaf_count=259 1067 3058 1095 772 607
internal_value=0.000468348 -0.0316772 0.0478359 -0.0485189 0.0198094
internal_weight=8866 5282 3584 3980.5 1301.5
internal_count=6858 4696 2162 3830 866
is_linear=0
shrinkage=0.008


Tree=103
num_leaves=6
num_cat=0
split_feature=54 42 33 33 40
split_gain=209141 75035.8 46461.1 33353.3 26126.3
threshold=0.030075141690246703 0.6830127018922193 0.026911802393848879 0.018796680037000638 1.0000000180025095e-35
decision_type=2 2 2 2 2
left_child=1 2 -1 -2 -5
right_child=3 -3 -4 4 -6
leaf_value=-0.0617989415461987 0.0049119497865007678 0.03513347873948823 -0.0094001224007362414 0.099751352886751035 0.045799770170750764
leaf_weight=2928.5 758 961 1721 909 1588.5
leaf_count=2893 459 579 1514 531 882
internal_value=0.000464633 -0.0291263 -0.0424265 0.0514475 0.0655403
internal_weight=8866 5610.5 4649.5 3255.5 2497.5
internal_count=6858 4986 4407 1872 1413
is_linear=0
shrinkage=0.008


Tree=104
num_leaves=6
num_cat=0
split_feature=54 36 33 33 40
split_gain=205815 61432.1 44763.8 32822.9 25863.2
threshold=0.030075141690246703 10.500000000000002 0.026911802393848879 0.018796680037000638 0.78656609248549303
decision_type=2 2 2 2 2
left_child=1 2 -1 -2 -5
right_child=3 -3 -4 4 -6
leaf_value=-0.057106252778086709 0.0048728085140674407 0.040907836383108374 -0.0068157768133399865 0.08385805336798971 0.029675683077435417
leaf_weight=3130.5 758 703 1777 1626 871.5
leaf_count=3036 459 400 1550 908 505
internal_value=0.000461243 -0.0288935 -0.0389155 0.0510371 0.0650175
internal_weight=8866 5610.5 4907.5 3255.5 2497.5
internal_count=6858 4986 4586 1872 1413
is_linear=0
shrinkage=0.008


Tree=105
num_leaves=6
num_cat=0
split_feature=0 42 33 41 33
split_gain=198591 58516.7 44700.9 23602.2 22371.4
threshold=2.8374038333333339e-07 0.6830127018922193 0.042181170011703996 -0.6830127018922193 0.017814497521370747
decision_type=2 2 2 2 2
left_child=1 2 -1 -2 -5
right_child=3 -3 -4 4 -6
leaf_value=-0.057402971395124368 0.0015160108493069025 0.023959078453326437 0.0049696516786402059 0.010409396547949716 0.065997468917072741
leaf_weight=3345.5 632 1008 941 575.5 2421
leaf_count=3270 455 593 826 342 1376
internal_value=0.00041704 -0.0308183 -0.043712 0.0459872 0.0553491
internal_weight=8923 5294.5 4286.5 3628.5 2996.5
internal_count=6862 4689 4096 2173 1718
is_linear=0
shrinkage=0.008


Tree=106
num_leaves=6
num_cat=0
split_feature=0 6 40 4 0
split_gain=195429 67032.9 37212.4 24725.8 22849.4
threshold=2.8374038333333339e-07 288.01393222222231 0.60355339059327384 91.786267639455801 1.0581601333333336e-07
decision_type=2 2 2 2 2
left_child=1 4 -2 -3 -1
right_child=2 3 -4 -5 -6
leaf_value=-0.051639341505547297 0.070259124873251935 -0.0041401967575321608 0.018938615021984215 -0.058733587443268391 0.026941949458486745
leaf_weight=286 1883.5 644 1745 3056 1308.5
leaf_count=278 1067 591 1106 2996 824
internal_value=0.00041389 -0.0305718 0.0456199 -0.0492478 0.0127641
internal_weight=8923 5294.5 3628.5 3700 1594.5
internal_count=6862 4689 2173 3587 1102
is_linear=0
shrinkage=0.008


Tree=107
num_leaves=6
num_cat=0
split_feature=0 6 40 4 0
split_gain=192320 65964.8 36620.1 24331.8 22488.1
threshold=2.8374038333333339e-07 288.01393222222231 0.60355339059327384 91.786267639455801 1.0581601333333336e-07
decision_type=2 2 2 2 2
left_child=1 4 -2 -3 -1
right_child=2 3 -4 -5 -6
leaf_value=-0.051230514795516185 0.069697945631068944 -0.0041072286900357448 0.01878736595244699 -0.058264179622528556 0.026726906679911535
leaf_weight=286 1883.5 644 1745 3056 1308.5
leaf_count=278 1067 591 1106 2996 824
internal_value=0.000410565 -0.0303277 0.0452555 -0.0488543 0.0126615
internal_weight=8923 5294.5 3628.5 3700 1594.5
internal_count=6862 4689 2173 3587 1102
is_linear=0
shrinkage=0.008


Tree=108
num_leaves=6
num_cat=0
split_feature=0 6 40 54 33
split_gain=189261 64913.7 36037.2 25619.3 22894.7
threshold=2.8374038333333339e-07 288.01393222222231 0.60355339059327384 0.021699252459952256 0.031627462682493467
decision_type=2 2 2 2 2
left_child=1 3 -2 -1 -3
right_child=2 4 -4 -5 -6
leaf_value=-0.038119364799635826 0.069141249651685194 -0.059399731454841592 0.018637324954956364 0.032767174608875196 -0.012191487759442487
leaf_weight=453.5 1883.5 2841 1745 1141 859
leaf_count=420 1067 2790 1106 682 797
internal_value=0.000407268 -0.0300855 0.0448941 0.0125597 -0.0484639
internal_weight=8923 5294.5 3628.5 1594.5 3700
internal_count=6862 4689 2173 1102 3587
is_linear=0
shrinkage=0.008


Tree=109
num_leaves=6
num_cat=0
split_feature=6 54 40 3 10
split_gain=186731 79159 29165.8 19847.8 15527.7
threshold=293.47790166666675 0.026191013692116429 0.37940952255126048 5.3472130000000006e-08 2.0298142916666672e-08
decision_type=2 2 2 2 2
left_child=1 4 -3 -2 -1
right_child=3 2 -4 -5 -6
leaf_value=-0.057789537044246823 -0.064621755949812246 0.063236362194994442 0.022771523299866279 -0.016739827102391094 -0.0042451902637792669
leaf_weight=579.5 2151.5 2181 2400.5 751 859.5
leaf_count=567 2145 1250 1495 716 689
internal_value=0.00040402 0.0258148 0.0420677 -0.0522696 -0.0258973
internal_weight=8923 6020.5 4581.5 2902.5 1439
internal_count=6862 4001 2745 2861 1256
is_linear=0
shrinkage=0.008


Tree=110
num_leaves=6
num_cat=0
split_feature=0 6 40 33 33
split_gain=189003 66404.8 32129.5 15790.4 8612.11
threshold=1.6925960500000002e-07 294.87608944444452 0.78656609248549303 0.0091759033636753303 0.080005843378214134
decision_type=2 2 2 2 2
left_child=3 2 -2 -1 -5
right_child=1 -3 -4 4 -6
leaf_value=-0.069439604737978305 0.053020213466896421 -0.035044124398663348 0.0092757302975934181 -0.039149285474570639 0.021425112728916465
leaf_weight=1444.5 3338 919 1588 1464.5 165
leaf_count=1434 1988 896 1020 1388 147
internal_value=0.000583003 0.0272893 0.0389365 -0.0501677 -0.0329753
internal_weight=8919 5845 4926 3074 1629.5
internal_count=6873 3904 3008 2969 1535
is_linear=0
shrinkage=0.008


Tree=111
num_leaves=6
num_cat=0
split_feature=0 6 40 6 10
split_gain=185995 65348.9 31617.6 14412.6 12657.9
threshold=1.6925960500000002e-07 294.87608944444452 0.78656609248549303 290.9116561111112 2.3171870800000002e-08
decision_type=2 2 2 2 2
left_child=3 2 -2 4 -1
right_child=1 -3 -4 -5 -6
leaf_value=-0.048897522429625195 0.052596432425699453 -0.034764683544032733 0.0092016637437232901 -0.061332641406010559 0.010023010209894996
leaf_weight=541.5 3338 919 1588 2126.5 406
leaf_count=516 1988 896 1020 2120 333
internal_value=0.00057816 0.027071 0.0386254 -0.049767 -0.0236773
internal_weight=8919 5845 4926 3074 947.5
internal_count=6873 3904 3008 2969 849
is_linear=0
shrinkage=0.008


Tree=112
num_leaves=6
num_cat=0
split_feature=54 42 33 33 21
split_gain=183752 64372.9 42475.8 31487.7 22821.5
threshold=0.030075141690246703 0.6830127018922193 0.01831357212969684 0.056828745722297368 2.3808238833333338e-07
decision_type=2 2 2 2 2
left_child=1 2 -1 -2 -5
right_child=3 -3 -4 4 -6
leaf_value=-0.061843291665929577 0.028194730468712344 0.031866913070373329 -0.013182944520435974 0.1139090852889568 0.045823003856863657
leaf_weight=2527.5 2040.5 969 2107.5 616 658.5
leaf_count=2506 1133 584 1877 417 356
internal_value=0.00057332 -0.0273484 -0.0397449 0.047763 0.0789367
internal_weight=8919 5604 4635 3315 1274.5
internal_count=6873 4967 4383 1906 773
is_linear=0
shrinkage=0.008


Tree=113
num_leaves=6
num_cat=0
split_feature=6 30 42 20 3
split_gain=177383 66138.2 33003.4 24983.9 17943.3
threshold=293.31924497777783 89.937399666666678 0.6830127018922193 3.3627173166666676e-08 5.3472130000000006e-08
decision_type=2 2 2 2 2
left_child=1 3 -3 -1 -2
right_child=4 2 -4 -5 -6
leaf_value=0.090229129257144394 -0.062187170140386799 -0.031680294913924295 0.024608207084427371 0.037456587042987211 -0.016965108372703916
leaf_weight=740 2164.5 1363 1299 2589 763.5
leaf_count=483 2157 1248 738 1516 731
internal_value=0.000569141 0.0255109 -0.0042084 0.049264 -0.0504314
internal_weight=8919 5991 2662 3329 2928
internal_count=6873 3985 1986 1999 2888
is_linear=0
shrinkage=0.008


Tree=114
num_leaves=6
num_cat=0
split_feature=54 42 30 40 6
split_gain=178515 62526.2 39440.4 28523.2 15343.1
threshold=0.030075141690246703 0.6830127018922193 194.55103666666673 1.0000000180025095e-35 285.95141444444448
decision_type=2 2 2 2 2
left_child=1 2 -1 -2 -5
right_child=3 -3 -4 4 -6
leaf_value=-0.012039200252868879 0.081445234081284568 0.031403286475364368 -0.059259188207635496 0.049129227630096729 0.0070392839361261431
leaf_weight=1974 1053 969 2661 1284.5 977.5
leaf_count=1762 622 584 2621 630 654
internal_value=0.000564681 -0.0269563 -0.0391738 0.0470772 0.0309827
internal_weight=8919 5604 4635 3315 2262
internal_count=6873 4967 4383 1906 1284
is_linear=0
shrinkage=0.008


Tree=115
num_leaves=6
num_cat=0
split_feature=54 42 40 30 41
split_gain=183525 57324.8 29632.2 24975.7 23308.2
threshold=0.030075141690246703 0.25000000000000017 1.0000000180025095e-35 94.864276555555577 -0.6830127018922193
decision_type=2 2 2 2 2
left_child=1 3 -2 -1 -3
right_child=2 4 -4 -5 -6
leaf_value=-0.005965880160397217 0.082571759223540805 -0.027185298917780504 0.030815133483753077 -0.057546553135731662 0.029995651373860639
leaf_weight=761.5 1047.5 751 2199 2873 1152
leaf_count=714 622 649 1257 2848 726
internal_value=-0.000148058 -0.028145 0.0475816 -0.0467587 0.00741199
internal_weight=8784 5537.5 3246.5 3634.5 1903
internal_count=6816 4937 1879 3562 1375
is_linear=0
shrinkage=0.008


Tree=116
num_leaves=6
num_cat=0
split_feature=54 42 33 40 11
split_gain=180606 59973 30926.1 29328.5 19946.7
threshold=0.030221720410142084 0.25000000000000017 0.031627462682493467 1.0000000180025095e-35 1.4067166166666667e-07
decision_type=2 2 2 2 2
left_child=1 2 -1 -2 -3
right_child=3 4 -4 -5 -6
leaf_value=-0.060451017169789067 0.084699817910708533 -0.04197434834657237 -0.0091182148385426983 0.031937550518885527 0.021207647698287535
leaf_weight=2652 997.5 397 1050.5 2096 1591
leaf_count=2644 591 371 982 1178 1050
internal_value=-0.000146711 -0.0268918 -0.0459111 0.0490228 0.00853604
internal_weight=8784 5690.5 3702.5 3093.5 1988
internal_count=6816 5047 3626 1769 1421
is_linear=0
shrinkage=0.008


Tree=117
num_leaves=6
num_cat=0
split_feature=0 6 40 33 6
split_gain=172069 56605.2 35624.8 25368.3 20895.2
threshold=2.8374038333333339e-07 286.5000844222223 0.60355339059327384 0.13967467049666801 287.26212388888894
decision_type=2 2 2 2 2
left_child=1 -1 -2 -3 -4
right_child=2 3 4 -5 -6
leaf_value=0.017974755864096113 0.067524802663981323 -0.048144354561426149 0.040968659724563754 0.053289936446421077 -0.014842396908567115
leaf_weight=1233 1815 3830.5 990 162 753.5
leaf_count=826 1050 3700 513 133 594
internal_value=-0.000145448 -0.0293606 0.0427386 -0.0439866 0.0168529
internal_weight=8784 5225.5 3558.5 3992.5 1743.5
internal_count=6816 4659 2157 3833 1107
is_linear=0
shrinkage=0.008


Tree=118
num_leaves=6
num_cat=0
split_feature=54 0 40 33 20
split_gain=175618 49625.9 32146.9 31115.8 21981.8
threshold=0.030075141690246703 1.5599573516000003e-07 0.37940952255126048 0.056828745722297368 3.7595795993197289e-08
decision_type=2 2 2 2 2
left_child=1 -1 -3 -2 -5
right_child=3 2 -4 4 -6
leaf_value=-0.052402216711225191 0.026715023246179775 0.019099149995394089 -0.034761839104752799 0.11590578625646762 0.048148817977610968
leaf_weight=2662 1984.5 1617.5 1258 544 718
leaf_count=2611 1114 1185 1141 360 405
internal_value=-0.000143911 -0.0275312 -0.00446917 0.0465462 0.0775777
internal_weight=8784 5537.5 2875.5 3246.5 1262
internal_count=6816 4937 2326 1879 765
is_linear=0
shrinkage=0.008


Tree=119
num_leaves=6
num_cat=0
split_feature=54 42 40 30 11
split_gain=172833 57858 28285.1 25840.9 19263.8
threshold=0.030221720410142084 0.25000000000000017 1.0000000180025095e-35 94.864276555555577 1.4067166166666667e-07
decision_type=2 2 2 2 2
left_child=1 3 -2 -1 -3
right_child=2 4 -4 -5 -6
leaf_value=-0.004193618601008418 0.082993892044141732 -0.041146431058647577 0.031179021165037565 -0.055940193397758797 0.020944369101760164
leaf_weight=785 997.5 397 2096 2917.5 1591
leaf_count=734 591 371 1178 2892 1050
internal_value=-0.000142369 -0.0263056 0.0479574 -0.0449866 0.00849159
internal_weight=8784 5690.5 3093.5 3702.5 1988
internal_count=6816 5047 1769 3626 1421
is_linear=0
shrinkage=0.008


Tree=120
num_leaves=6
num_cat=0
split_feature=6 10 40 3 11
split_gain=160801 57367 35319 15167.5 10766.4
threshold=293.47790166666675 3.0688794602040835e-08 0.1294095225512602 5.5392509166666674e-08 1.4067166166666667e-07
decision_type=2 2 2 2 2
left_child=1 4 -3 -2 -1
right_child=3 2 -4 -5 -6
leaf_value=-0.046452998819043828 -0.058910856284338113 0.0630447734065675 0.018384858480384111 -0.015523293679168467 0.0044379711054124919
leaf_weight=714.5 2254.5 1841.5 2954 673.5 421
leaf_count=690 2246 1058 1901 646 297
internal_value=-0.000481943 0.0234617 0.0355674 -0.0489638 -0.027605
internal_weight=8859 5931 4795.5 2928 1135.5
internal_count=6838 3946 2959 2892 987
is_linear=0
shrinkage=0.008


Tree=121
num_leaves=6
num_cat=0
split_feature=6 54 40 33 16
split_gain=158242 70636.3 26063.2 14991.6 13520.2
threshold=293.47790166666675 0.026587423022770902 0.60355339059327384 0.01831357212969684 3.8267137166666673e-07
decision_type=2 2 2 2 2
left_child=1 4 -3 -2 -1
right_child=3 2 -4 -5 -6
leaf_value=-0.034242934680939238 -0.061137193699973953 0.056291735873628464 0.017278778591931731 -0.022362412793754907 0.036447051575653568
leaf_weight=1276 1976 2495 1962.5 952 197.5
leaf_count=1141 1968 1427 1238 924 140
internal_value=-0.000478165 0.0232742 0.0391432 -0.0485727 -0.0246997
internal_weight=8859 5931 4457.5 2928 1473.5
internal_count=6838 3946 2665 2892 1281
is_linear=0
shrinkage=0.008


Tree=122
num_leaves=6
num_cat=0
split_feature=6 1 6 39 33
split_gain=155725 55452.4 28044.1 14892.7 8458.87
threshold=293.47790166666675 2.3539371500000005e-07 286.5000844222223 -0.60355339059327362 0.053951580943111824
decision_type=2 2 2 2 2
left_child=1 4 -3 -2 -1
right_child=3 2 -4 -5 -6
leaf_value=-0.035057597226233791 -0.019810836711615168 0.054091549449789521 0.015259012467822351 -0.05970752178669906 0.027380628609989452
leaf_weight=1001.5 848.5 2440.5 2330.5 2079.5 158.5
leaf_count=928 825 1324 1557 2067 137
internal_value=-0.000474342 0.0230883 0.0351486 -0.0481849 -0.0264603
internal_weight=8859 5931 4771 2928 1160
internal_count=6838 3946 2881 2892 1065
is_linear=0
shrinkage=0.008


Tree=123
num_leaves=6
num_cat=0
split_feature=54 42 33 33 41
split_gain=154083 57765.4 28622 23171.6 22583.9
threshold=0.030273485318140846 0.25000000000000017 0.039585154325494976 0.015658100264086733 -0.6830127018922193
decision_type=2 2 2 2 2
left_child=1 2 -1 -2 -3
right_child=3 4 -4 -5 -6
leaf_value=-0.055948862529669866 -0.0042465590000862171 -0.024113115087272447 -0.0040645713655319479 0.055183942976552651 0.030088776448076848
leaf_weight=2833.5 501 798 897 2557.5 1272
leaf_count=2821 314 673 832 1405 793
internal_value=-0.000470577 -0.0246969 -0.0434919 0.0454477 0.00917925
internal_weight=8859 5800.5 3730.5 3058.5 2070
internal_count=6838 5119 3653 1719 1466
is_linear=0
shrinkage=0.008


Tree=124
num_leaves=6
num_cat=0
split_feature=0 42 33 40 13
split_gain=150823 45088.5 36912.3 29945.2 17155
threshold=2.8374038333333339e-07 0.6830127018922193 0.038938375725541367 0.60355339059327384 289.90957123582768
decision_type=2 2 2 2 2
left_child=1 2 -1 -2 -5
right_child=3 -3 -4 4 -6
leaf_value=-0.051865047931977708 0.061783833169040681 0.021101411860699606 0.0031777187726188139 0.036649013159571885 -0.014775734991192734
leaf_weight=3278 1867 987 1021.5 1000 705.5
leaf_count=3211 1048 584 901 516 578
internal_value=-0.00046684 -0.0275987 -0.0387899 0.0396661 0.0153763
internal_weight=8859 5286.5 4299.5 3572.5 1705.5
internal_count=6838 4696 4112 2142 1094
is_linear=0
shrinkage=0.008


Tree=125
num_leaves=6
num_cat=0
split_feature=54 6 33 54 40
split_gain=157197 45182.4 32247.6 21690.1 20177.4
threshold=0.030075141690246703 292.9667633333334 0.016348730476748088 0.022606965185925722 -0.12940952255126037
decision_type=2 2 2 2 2
left_child=1 3 -2 -1 -4
right_child=2 -3 4 -5 -6
leaf_value=-0.034894386385269829 -0.0083707856110029795 -0.048794524186152891 0.090252098558441032 0.012646104544579772 0.041361991289597617
leaf_weight=920 631 2826.5 753 1832.5 1949.5
leaf_count=848 412 2792 447 1313 1052
internal_value=-0.000376524 -0.0263453 0.0430639 -0.00325734 0.0550766
internal_weight=8912.5 5579 3333.5 2752.5 2702.5
internal_count=6864 4953 1911 2161 1499
is_linear=0
shrinkage=0.008


Tree=126
num_leaves=6
num_cat=0
split_feature=0 42 33 40 13
split_gain=150983 42018.1 33928.4 30400.6 15567.8
threshold=2.8374038333333339e-07 0.6830127018922193 0.056828745722297368 0.60355339059327384 286.72485611111114
decision_type=2 2 2 2 2
left_child=1 2 -1 -2 -5
right_child=3 -3 -4 4 -6
leaf_value=-0.048722772563541128 0.061485381675598021 0.01942881339176019 0.011250653240215649 0.042707117471552841 -0.0052918010260735032
leaf_weight=3561 1885 980 725 752 1009.5
leaf_count=3462 1073 581 632 369 747
internal_value=-0.000373354 -0.0277698 -0.0385725 0.0391753 0.0152258
internal_weight=8912.5 5266 4286 3646.5 1761.5
internal_count=6864 4675 4094 2189 1116
is_linear=0
shrinkage=0.008


Tree=127
num_leaves=6
num_cat=0
split_feature=54 42 33 33 41
split_gain=152877 50304.6 33711.8 20118.9 19087.3
threshold=0.029991555687006278 0.25000000000000017 0.016348730476748088 0.042181170011703996 -0.6830127018922193
decision_type=2 2 2 2 2
left_child=1 3 -2 -1 -3
right_child=2 4 -4 -5 -6
leaf_value=-0.054425934145880685 -0.0091795795111734597 -0.025090178703012132 0.054224773537485345 -0.0088783805226495781 0.026286207959717894
leaf_weight=2767 666 753 2733.5 803 1190
leaf_count=2756 442 639 1524 749 754
internal_value=-0.000370096 -0.0263859 0.0418001 -0.0442026 0.00635728
internal_weight=8912.5 5513 3399.5 3570 1943
internal_count=6864 4898 1966 3505 1393
is_linear=0
shrinkage=0.008


Tree=128
num_leaves=6
num_cat=0
split_feature=54 42 40 41 4
split_gain=150443 49503.9 24260.4 18784.1 14623.2
threshold=0.029991555687006278 0.25000000000000017 -0.12940952255126037 -0.6830127018922193 201.75198506666672
decision_type=2 2 2 2 2
left_child=1 4 -2 -3 -1
right_child=2 3 -4 -5 -6
leaf_value=-0.023402168056517358 0.077427257523896065 -0.024890253800810093 0.02870464706046667 0.026076447108584051 -0.056736042744179281
leaf_weight=1384 886 753 2513.5 1190 2186
leaf_count=1330 529 639 1437 754 2175
internal_value=-0.000367199 -0.0261751 0.041466 0.00630636 -0.0438494
internal_weight=8912.5 5513 3399.5 1943 3570
internal_count=6864 4898 1966 1393 3505
is_linear=0
shrinkage=0.008


Tree=129
num_leaves=6
num_cat=0
split_feature=54 42 33 33 40
split_gain=148074 50589.3 31057.3 20100.8 19375.4
threshold=0.030075141690246703 0.25000000000000017 0.016348730476748088 0.042181170011703996 -0.12940952255126037
decision_type=2 2 2 2 2
left_child=1 3 -2 -1 -4
right_child=2 -3 4 -5 -6
leaf_value=-0.053522868036464125 -0.0086775709206373536 0.0070113920850076328 0.088054172434661751 -0.0082289640897981083 0.040147395082838863
leaf_weight=2797 631 1971 753 811 1949.5
leaf_count=2786 412 1411 447 756 1052
internal_value=-0.00036417 -0.0255682 0.0417968 -0.0433626 0.0535859
internal_weight=8912.5 5579 3333.5 3608 2702.5
internal_count=6864 4953 1911 3542 1499
is_linear=0
shrinkage=0.008


Tree=130
num_leaves=6
num_cat=0
split_feature=54 42 33 33 40
split_gain=142521 47117.2 35855.1 27147.4 20747.4
threshold=0.030075141690246703 0.6830127018922193 0.015916978250005803 0.016348730476748088 1.0000000180025095e-35
decision_type=2 2 2 2 2
left_child=1 2 -1 -2 -5
right_child=3 -3 -4 4 -6
leaf_value=-0.056291257521917971 -0.0054445945235086996 0.027827754331972973 -0.011891807172640255 0.084390751083214727 0.0370953127041131
leaf_weight=2375.5 614 927 2286.5 913 1723
leaf_count=2362 391 568 2039 535 938
internal_value=0.000306931 -0.0241837 -0.0345413 0.0424129 0.0535614
internal_weight=8839 5589 4662 3250 2636
internal_count=6833 4969 4401 1864 1473
is_linear=0
shrinkage=0.008


Tree=131
num_leaves=6
num_cat=0
split_feature=0 6 54 6 31
split_gain=146330 46786.3 20835.7 20209.5 21764.7
threshold=2.8374038333333339e-07 286.58791555555564 0.021849905777213078 287.06638500000003 1.8149494444444942
decision_type=2 2 2 2 2
left_child=1 2 -1 4 -2
right_child=3 -3 -4 -5 -6
leaf_value=-0.036006351133745708 0.03168441133033064 -0.040030291014416269 0.036212926636509005 0.020704902062986575 0.087766164841798944
leaf_weight=353 928 3989 904.5 1808 856.5
leaf_count=322 452 3829 528 1192 510
internal_value=0.000304663 -0.0266227 0.0158865 0.0396245 0.0587151
internal_weight=8839 5246.5 1257.5 3592.5 1784.5
internal_count=6833 4679 850 2154 962
is_linear=0
shrinkage=0.008


Tree=132
num_leaves=6
num_cat=0
split_feature=0 6 40 33 1
split_gain=144004 46041 29528 20730.7 17712.4
threshold=2.8374038333333339e-07 286.58791555555564 0.60355339059327384 0.13967467049666801 1.7810369500000002e-07
decision_type=2 2 2 2 2
left_child=1 4 -2 -3 -1
right_child=2 3 -4 -5 -6
leaf_value=-0.040531195439104536 0.061369343956925948 -0.043418282339898057 0.015428341273805919 0.049494878435060612 0.031683919492683295
leaf_weight=276 1864.5 3831.5 1728 157.5 981.5
leaf_count=265 1067 3700 1087 129 585
internal_value=0.000302516 -0.0264099 0.0393085 -0.0397103 0.0157593
internal_weight=8839 5246.5 3592.5 3989 1257.5
internal_count=6833 4679 2154 3829 850
is_linear=0
shrinkage=0.008


Tree=133
num_leaves=6
num_cat=0
split_feature=0 6 40 33 1
split_gain=141711 45306.8 29058 20404 17432.3
threshold=2.8374038333333339e-07 286.58791555555564 0.60355339059327384 0.13967467049666801 1.7810369500000002e-07
decision_type=2 2 2 2 2
left_child=1 4 -2 -3 -1
right_child=2 3 -4 -5 -6
leaf_value=-0.040210432624838255 0.060879178128759551 -0.043071207643406773 0.01530512852724889 0.049106320220361988 0.031431220410566695
leaf_weight=276 1864.5 3831.5 1728 157.5 981.5
leaf_count=265 1067 3700 1087 129 585
internal_value=0.000300315 -0.0261986 0.0389946 -0.0393925 0.0156329
internal_weight=8839 5246.5 3592.5 3989 1257.5
internal_count=6833 4679 2154 3829 850
is_linear=0
shrinkage=0.008


Tree=134
num_leaves=6
num_cat=0
split_feature=0 6 40 54 33
split_gain=139455 44584.3 28595.4 20161.3 20082.4
threshold=2.8374038333333339e-07 286.58791555555564 0.60355339059327384 0.021849905777213078 0.13967467049666801
decision_type=2 2 2 2 2
left_child=1 3 -2 -1 -3
right_child=2 4 -4 -5 -6
leaf_value=-0.035537669923616934 0.060392926856428587 -0.042726907527904381 0.015182899303979643 0.035502725217922408 0.048720812250520579
leaf_weight=353 1864.5 3831.5 1728 904.5 157.5
leaf_count=322 1067 3700 1087 528 129
internal_value=0.00029813 -0.025989 0.0386832 0.0155076 -0.0390773
internal_weight=8839 5246.5 3592.5 1257.5 3989
internal_count=6833 4679 2154 850 3829
is_linear=0
shrinkage=0.008


Tree=135
num_leaves=6
num_cat=0
split_feature=0 6 40 33 54
split_gain=132306 41156.4 29235.1 19607.6 17780.9
threshold=2.8374038333333339e-07 286.5000844222223 0.78656609248549303 0.11550216351157348 0.021699252459952256
decision_type=2 2 2 2 2
left_child=1 4 -2 -3 -1
right_child=2 3 -4 -5 -6
leaf_value=-0.034933686340308474 0.054821384908844653 -0.042674435701842518 0.0066510448740013436 0.031827143424403126 0.032287140300182447
leaf_weight=343 2251 3789.5 1258.5 238 922.5
leaf_count=317 1313 3651 812 201 535
internal_value=-0.000495153 -0.0257473 0.0375737 -0.0382465 0.0140124
